solver_type L2R_L2LOSS_SVC_DUAL
nr_class 2
label 1 -1
nr_feature 1448
bias -1
w
0.004967900770312267 
0.005264039069142431 
0 
0.003826565622972337 
0 
-0.001421777959409993 
0.005173935820610492 
0 
0.004270369255979007 
0.001373983146776216 
-0.0027314744782003 
0.007187537218287479 
0.002647418263812345 
0.02377352167741374 
-0.009141885126872111 
0 
0 
0.02302959022012787 
-0.002511055693885372 
0.01162314028480709 
-1.084202172485504e-019 
0 
0 
-0.02788801716695473 
0.001013379216129865 
0.001975306136444983 
0.01064999702491661 
0.004327270295169428 
0 
-0.01912242651124669 
0 
-0.01854183082748096 
0 
-0.001669901376499168 
-0.01227898627277775 
0 
-0.01734588109990307 
-0.02297601458229688 
-0.001669901376499166 
-0.01367326337273822 
0 
-0.01780913078696123 
0.00846664603876914 
0.0002440726486427127 
0 
0.0123215978165849 
-0.007232843722680266 
0.00546827242464059 
0 
0 
-0.02545675141483812 
-0.0006166086335107136 
0.01325580346138435 
-0.02866354933836108 
0.001875246152357968 
-0.002967012180401167 
0.0106499970249166 
-0.008333764565849005 
0.001719752593703043 
0.009904954463367695 
0.02358017257715719 
0 
0 
0.001373983146776216 
0.005562745085588065 
0.005468943532571303 
-0.03132038122657559 
0.0005066896080649326 
-0.04212243942246924 
-0.003072905493993693 
-0.002243455962162536 
0.01064999702491661 
0 
0.001901958397040957 
0 
-0.03155679077891204 
0 
-0.007232843722680265 
-0.04466224785388218 
-0.0384808282434347 
-0.008519122438657299 
-0.002466434534042856 
0.002596379336076702 
-0.01382489228565745 
0 
0.01215977920863163 
0.003300363654112978 
0 
0.001825549175729774 
-0.004634873501889702 
-0.001101979563143807 
0.01047961771955978 
0.006747662131664394 
-0.008019939451839118 
1.517883041479706e-018 
0.002596379336076702 
0.0186866054482902 
-0.02448722165213896 
0 
-0.007891553652352019 
-0.01572685068269841 
0.01415698088238778 
0 
0.009861243174877708 
0 
-0.001731587435015902 
0.004899595929939583 
-0.01404148105681169 
-0.01264341402951321 
0 
-0.001669901376499166 
0.01605291960801024 
0.0002332803127945126 
0.001214808137919309 
0.001272766054390163 
0 
0.0005003716543283246 
0 
-0.0355308545647863 
-0.03490123314137607 
0 
0.00306420107749433 
0 
-0.002536756760915184 
0.03646863827308771 
0.005707587571322001 
0.0001081507029988805 
0 
0.006963406309380079 
0.01165823953890784 
-0.01115522496317007 
0.002714803181414953 
0.006768202977252105 
0.002596379336076702 
0.0004665606255890253 
0.005402922583093649 
-0.02998146490930686 
0 
0.01622314039205139 
0 
0 
0.005649798540207703 
0.05334463408081293 
-1.084202172485504e-019 
0.001879571737690154 
-0.01222315196124614 
-0.002917094159650532 
0.002922478571700637 
-0.01374573873276407 
-0.02277306892686061 
0.001719752593703044 
-0.001669901376499166 
-0.002412124515561861 
0.005402922583093647 
0.0002332803127945121 
-0.004013142289940169 
-0.004768488569321256 
0 
0.0004358443541701558 
0 
0 
-0.001669901376499166 
0 
0 
0.0037374466733447 
-0.00694230368818428 
-0.01005309362628335 
-0.005080945454435 
-0.0006166086335107128 
0.03215774487497229 
0.01076952670756644 
-0.00310311940304049 
-2.671224468298994e-005 
-0.01790985406114721 
-0.009012731594199071 
-0.03975536130911034 
0.005402922583093648 
-0.005487612253753712 
-0.02026612574728335 
-0.01335101469118517 
0 
0.0002332803127945126 
-0.000616608633510714 
0.01516807072749727 
0 
0.001373983146776216 
0.001901958397040958 
0.0009117796307545418 
-0.05139603616876404 
0.004967900770312267 
0.008349697089047457 
0.0002440726486427129 
0.0007504960199471647 
0 
0.004967900770312267 
-0.002261663664298985 
0 
-0.004960853658855163 
0.003068191568607215 
0 
0 
0.005772530620595552 
0.06479584980436584 
0.004495877959613122 
0.004899595929939583 
-0.01797333578584213 
0.02150762450110638 
0 
0 
-0.001262035887446025 
-0.01131512951372938 
-0.003121172315075312 
-0.003339802752998331 
0.00381741707113595 
5.421010862427522e-020 
-0.004742806870492862 
0.02358017257715719 
0 
0.002449651260130269 
-0.004372232408975863 
0 
0.06136407464620274 
0.001405855632568119 
-0.02808296211362339 
0 
0.002900812968627086 
-0.00699143736007221 
5.421010862427522e-019 
0 
-0.005080945454435001 
0.00581726058832 
0.0215795925677579 
-0.01789598328197263 
0.008871295516431408 
0.1187391791248778 
0.003134093281421598 
-4.336808689942018e-019 
0.0002332803127945126 
-0.001078980888812267 
-0.0007939999393577935 
-0.004221274158133268 
-0.004097244107871921 
0.001266888108943815 
0.01440167672190707 
0.004160142051022597 
-0.005806717658175458 
-1.084202172485504e-019 
0.01541593436751316 
0.0005003716543283248 
0.006101191560004071 
0 
0 
0 
-0.001655058272204506 
-0.04283571882903095 
-0.02717945610404591 
0 
-0.05121355247946771 
-0.007232843722680266 
-0.004813101453670534 
0.0004665606255890252 
0.0186866054482902 
0 
0 
0 
-0.00181850596971343 
0 
0 
0 
0.01037082335340591 
-0.01228813191982239 
0.0007504960199471647 
-0.000793999939357793 
-0.01277283882576307 
0 
0.009652711117564059 
0 
-0.001114978801505188 
-2.710505431213761e-020 
-0.003339802752998331 
0.03296592095947411 
0.002545532108780327 
0.001627054144305545 
0 
-0.01964493439740719 
-0.006236320058451613 
0 
0.008303735551720731 
-0.01985846619476957 
-0.04414774674827107 
0.004952477231683848 
0 
0.007592885652889831 
0.0004665606255890252 
0.0173286972310887 
0 
0.008139829431151099 
-0.003072905493993693 
0.002924108566067644 
0 
0.001922057066293506 
0.000786979595535769 
0.0002332803127945121 
-0.002261663664298985 
0.03798584750417112 
0.006768202977252105 
-0.003493724612617321 
0.008820822739119352 
0 
-0.03644261921775076 
-0.000793999939357793 
-0.002398013881510218 
0.0008817364441047683 
0.01098519335056012 
-0.005395507167449042 
-0.004323846935127824 
-0.01034183245569947 
-0.002259607844551164 
-0.01619400388990808 
-0.003647846108665246 
0.008407405957718358 
0.005725973860375417 
0 
0 
0.0002332803127945126 
0.0002332803127945121 
-0.001337454023928189 
0 
-0.001114978801505188 
0.0186866054482902 
0.03024338665018967 
0 
0.004952477231683848 
0.01064999702491661 
4.336808689942018e-019 
0 
-0.01716071261104506 
-0.0008441811536561744 
0.001373983146776216 
0.01608518476392538 
0.01072213292152657 
0.008980095648417438 
0 
0.01014523590383725 
0 
0 
-0.02610209275718282 
-0.02145113416201101 
-0.01673923464053622 
-0.01364683692078806 
-0.01212399635219036 
0 
0.09118980255824544 
0.0002440726486427127 
0 
0.0007039843180362754 
-0.001669901376499166 
0.005511073286092526 
-0.009459773906401636 
0 
-0.01572685068269842 
-0.000753202614850389 
-0.0798957332343834 
0.01034787164122098 
-0.04318923922651357 
0 
0.01419231241502408 
-0.002798226581425987 
0 
-0.008496908949736542 
-0.01915096556557488 
0.0002332803127945126 
-0.01669185586305568 
0 
0.002706237106013283 
-0.0153522228360569 
0.03147485495575739 
-0.008902745099179427 
0.01541593436751316 
0 
-0.02652934883260757 
0 
0.002900812968627087 
-0.02274838023660272 
-5.421010862427522e-019 
0 
0.03977919015913437 
0 
0.02471915576190863 
0.003606842698618216 
0 
0.008453031955127434 
-0.003461655553341438 
0.007302196702919096 
0 
0.002449651260130269 
0.0005483308445976747 
0.0005003716543283248 
0.01651259106456065 
0.001702953435204733 
0.0005375385087494745 
0.006034906250048688 
0 
-0.0132738494304371 
0.0002332803127945126 
0.0185207399671535 
0 
-0.000793999939357793 
0.1310143183274331 
-0.1457801714362 
0.002449797964969791 
0.0007504960199471647 
0.0002440726486427127 
-0.01716071261104506 
0 
-0.01062134678232066 
-8.673617379884036e-019 
-0.01016189090887 
-0.03741193528323584 
0 
0.006003881912768723 
0.01803779559235841 
-0.01751450326902021 
0.0007504960199471647 
0.0005003716543283248 
0.003824015463334461 
-0.01572685068269841 
0 
-0.01193183524897934 
0.0005194176773228469 
0 
0.04171595682474797 
-0.001310741779245201 
-0.004960853658855163 
0.003784617128434394 
-0.01227898627277775 
0.007005961319397199 
-0.001669901376499166 
-0.03935616445945669 
-0.02109811149922703 
-0.001729676441628305 
0.0491906319052782 
-0.03360128159756228 
-0.007939431437030207 
-0.002543575509321487 
0.001214808137919308 
0.01093696104777449 
0.02176655467542224 
0.005562745085588065 
0.0005066896080649324 
-0.01404148105681169 
0 
0.000791012734585666 
-0.0217867911812445 
0.0004665606255890252 
0.005674307474938814 
0.01296118254527531 
-0.008773667542431333 
-0.001365643180544203 
0.001008242513991238 
0.005775788155297631 
-0.00269775358372452 
-0.02926178847620252 
-0.03390831340861278 
0.005909612191158583 
-0.001466114042870802 
-0.001337454023928192 
0 
-0.00269775358372452 
-0.02743855117248776 
0.0007039843180362754 
0.01064999702491661 
-0.001114978801505189 
-0.008030841661686532 
0.00125892531214851 
0.01944658838918744 
-0.001719177693140546 
0 
-0.01449637917417415 
-0.01579149844311367 
0.005293908247477241 
-0.035407922749441 
-3.252606517456513e-019 
0.0001081507029988811 
0.00786871373893935 
-0.04631757526649374 
-0.02821651425562187 
-0.007699597139723209 
0.009141801601266739 
0.001272766054390164 
0.01594864676052262 
0.004638835309385001 
-0.00452332732859797 
-0.004127107255087411 
-0.01233915583355825 
0.007768742393458681 
-0.01403463994962934 
0.01888298717333058 
0.005670828586596325 
-0.01150283672731603 
-0.01144325537277551 
-0.01179535422117781 
0 
0.02651817332276009 
0.01064999702491661 
-0.02603426750774244 
0.002545532108780328 
-0.001669901376499166 
0.0002332803127945126 
0.0005003716543283246 
0.001212719338056059 
0.002900812968627086 
-0.03780672373583114 
-0.01135832298701423 
0.01483863674464171 
-0.00372823833352881 
-0.002746710508404015 
-0.01465794233632447 
0.04071853408407297 
0.0002332803127945126 
0.006116628713759433 
0.02874072269353317 
0 
0 
0.1006001545441207 
0 
-0.003727777707169785 
-0.008593795524231437 
0.0003042581959549623 
-0.01203031480753317 
0.0001081507029988805 
0 
0.001534562908785207 
0.008427796467808993 
-0.01818082243647952 
0 
0.01269500683409137 
-0.008026284579880342 
-0.01651134042906953 
-0.02252291740187246 
0 
0 
0.001901958397040958 
-0.00402474304537849 
0 
0.01778212858836515 
0 
-0.02560984835790857 
0 
-0.008279537033848754 
-0.009037334746710098 
0.0001081507029988806 
-0.01383812875225037 
0 
-0.01030803845236342 
0.009114485131796661 
0 
-0.04464328926148348 
0.01564870543207129 
0 
0 
0 
0.0009124769655169536 
0.0004665606255890252 
0.001479939841718888 
0.02559617148706763 
-0.0136729207277893 
0.0004358443541701558 
0.002956340868195201 
-0.02420337196568168 
-0.00238199981807338 
-0.01009513497146542 
0.006506159230403429 
0.0004665606255890252 
-0.01229027043182248 
0.0001081507029988803 
-0.003074971414227751 
-0.001087628224387261 
0 
0 
-0.01428646542467064 
-4.92182968141134e-005 
0.0001081507029988803 
-0.001197587411238343 
-0.0546745099342179 
0.002422279427349283 
0.004812249065640899 
0 
-0.002666205889270852 
0.003187308160571202 
0.03874030517880295 
0.01201948842309741 
0 
-0.001546907569205626 
-0.004960853658855164 
0.0002440726486427127 
-0.01404148105681169 
0.0005003716543283256 
-0.003310116544409011 
-0.001466114042870803 
-0.003072905493993694 
0.004723840629684516 
0 
0.00517446883842379 
0.0391996616459814 
-0.04566225483220325 
0 
-1.490777987167569e-019 
0.03707793459251987 
-0.007083801859106126 
0.004720082517252597 
0.002545532108780326 
0 
-0.01840422864514378 
0.001405855632568119 
0.1245861851254597 
0.01625773107221758 
-0.01359808727453753 
0.02145743139878701 
-0.00901273159419907 
-0.007611777109370864 
0.03439916527589751 
-0.005551031839624892 
0.004952477231683848 
0 
0.0003042581959549623 
-0.006379831883459818 
-0.01289591390545891 
0.004967900770312267 
-0.006750846830934167 
-0.03537712201178204 
0.0004665606255890256 
0.0003042581959549625 
-0.002528336535960938 
0.00574951369647169 
0 
0 
0.008291587982848604 
0.01181639858888917 
-0.001466114042870802 
0.0003042581959549623 
0 
0.01628619992080475 
-0.00269775358372452 
-0.00950016669096557 
0.009064899054598627 
0.004383227875904074 
0.02949547111306141 
0.008759543739049256 
0.06104123994371802 
0.0008236758732778092 
0 
-0.008856629154923025 
0.004952477231683848 
0.009306538599946745 
-0.01446568744536053 
0.01091381104049593 
0.002108783448852178 
-0.02914590166272019 
0.0005066896080649326 
-0.008779451281404557 
-0.01572685068269841 
-0.00202590083672948 
-0.01623524891735322 
-0.04140543378133521 
0.002283912529679963 
0.03837380713493115 
0 
1.084202172485504e-019 
0.01588626084983432 
-0.00908900382512785 
0.01125979461223583 
-0.00699956340988575 
0.0002332803127945124 
-0.00225671620189002 
0.003784617128434393 
0.004899595929939583 
-0.02300927294728599 
0.003375628001936248 
-0.02075796440030014 
-0.0007939999393577935 
-0.01725900419368592 
0.01651259106456066 
-0.002697753583724521 
-0.01167806397103343 
-0.01229162197597477 
-0.01264341402951321 
-0.006111575980623071 
0 
-0.02869726025729123 
0.01095425522087156 
0 
0.009935801540624534 
0.01541593436751316 
0 
0.005968644078968914 
-1.626303258728257e-019 
-0.007585009607882813 
-0.02413423608834461 
0 
0 
-0.01772435948394821 
-0.02013907757705405 
0 
0.02423535223744378 
-0.01103151814957353 
-0.006710895873664689 
-0.003684772775891678 
-2.168404344971009e-018 
0 
0.0004665606255890252 
0.0002332803127945126 
0 
0 
0.0006998409383835376 
0.0002440726486427127 
-0.007064871012979762 
0.03163171250078516 
0.01541593436751316 
-0.007712239648739735 
-0.001197799550680565 
-0.003072905493993694 
0 
0.009516382910907454 
0 
0.004952477231683847 
-8.673617379884036e-019 
0 
-0.004261012720471624 
0 
-0.009921707317710327 
-0.0218276459181573 
-0.002932228085741606 
0.01056377309145673 
-4.336808689942018e-019 
-0.0282166147249115 
0.02647103832573352 
0.0003414310157933948 
0.02649333079364712 
0.01913004074245495 
0.018779553649842 
0.02064830740901929 
-0.001337454023928192 
0 
0.001038835354645694 
-0.007964625801839416 
0 
0 
-0.002261663664298985 
-0.01312617343593511 
0.009436447831738989 
0.01075814772791548 
0 
-0.008930979976427313 
0.003353028264635364 
0.001806641151878712 
0.00200102078083706 
0.006388743958529801 
0 
0.002449651260130269 
-0.002697753583724521 
-0.01075810091303333 
-0.01867303361399452 
-0.09839017667330685 
0.01253218087670123 
0.06326882124548959 
0 
0 
0 
0.007688633549168272 
-0.0144279244487942 
0.0009127745878648865 
-0.003414433316942439 
0 
0.04747871469466738 
-0.009704345500900255 
0.01923138052325848 
-2.671224468299059e-005 
0.001166401563972563 
0.01919329505635511 
-0.01005309362628335 
0.001894995276318573 
0.0003042581959549623 
0.0003042581959549625 
-0.004367654960223691 
0 
0.0186866054482902 
-0.01599608879918017 
0.000506689608064933 
-0.05122690170127889 
0 
0.009784068640109434 
-0.02068770434155357 
0 
-0.001669901376499165 
0.001901958397040957 
-0.001353152900290651 
0.004666142457772533 
-0.0171092465530455 
0 
-2.710505431213761e-020 
-0.000616608633510714 
0.07536791884893518 
0.0005066896080649323 
0.0005066896080649326 
-0.00772424451030011 
0 
0.005402922583093648 
-0.02397943677170288 
-1.490777987167569e-019 
0 
0.01376858308957332 
0.05652819733234952 
0.00420899647972638 
-0.007407846875433412 
-0.003582837673053434 
0 
0.01006088687111106 
0.001149422657175813 
0.0004665606255890252 
-0.001984676742276292 
0 
0.04317640279503354 
-0.00901273159419907 
-0.00448487742912783 
0.002900812968627086 
-0.01568898772135566 
0.0002332803127945126 
0.02168652688517116 
0.03093503719310459 
-0.0007532026148503882 
-0.000274582262034946 
-0.001262035887446026 
0.00269372390877298 
0.03409604551837472 
0 
-0.002261663664298985 
0.006554510801345792 
0.04716034515431438 
0 
-0.008531522156129179 
0.02738973013254356 
-0.008048495625316288 
-0.01264341402951321 
0 
0.003539962272955188 
0 
-0.001262035887446026 
0.0123215978165849 
-0.01029617794843178 
0 
0.001967024608522182 
0.007623587080740758 
0 
0 
0 
0.01560247425660045 
3.794707603699266e-019 
0.005715527507306051 
-0.02112248467759536 
-0.354815702458078 
-0.01387663129653463 
0.00770358433429513 
-0.03203371860438619 
0.0123215978165849 
-0.01350404982485827 
-0.003785772468255662 
0.0002332803127945126 
-0.04363333533239042 
-0.0104608309492316 
0.0007793608997264062 
0 
0.01038551734430681 
-0.008725908901345395 
-0.03643667832409253 
0 
0 
0.006045698585896889 
-0.0003948966771321579 
-0.02306809946240509 
-0.01264341402951321 
-0.008985760256147083 
0.02358017257715719 
0.004952477231683847 
0 
0 
0 
0 
0.01651259106456065 
0 
-0.008749404434257925 
0.0007634903259655601 
0 
-0.003314362217235235 
0 
0 
-0.06477914634607283 
-0.01584162049641522 
-0.001561750673500286 
-0.01158176591441692 
-0.06058076544218858 
0 
-0.01901948124839653 
0.04013607641462254 
0.0003524797891627181 
-0.0003822922178143417 
0.02301735758399935 
0 
0 
0.00526412583367155 
0 
0 
-0.01608222873100291 
-0.01333920670896948 
0.008104038037360426 
-0.008773586044084873 
0 
-0.03093168985270169 
0.005553394839332797 
0 
-0.002751405407701815 
0 
-0.03458884527444253 
0.04862689299533783 
-0.03430932005600692 
-0.001658918229078827 
-0.004027732407677117 
0 
0 
-0.001262035887446025 
-0.02240113816093908 
0.003142347689141734 
0 
0 
0.0007504960199471636 
0.01407343926770496 
0 
-2.168404344971009e-019 
-0.0004272786882251079 
0.009163121155006324 
0 
0.005411868594846901 
0 
0.005636202895888164 
0.002730486658399537 
0.005045529378435415 
0.0001081507029988803 
0 
0.0186866054482902 
-0.03084586506840164 
-0.009500166690965572 
0.01067972571575763 
8.673617379884036e-019 
0 
0.001490853672969204 
0.004498337733117657 
-0.007561344747166231 
-0.009742686753529274 
0.01160325187450834 
0 
0.0002332803127945126 
0 
-0.01472712760046773 
-0.01536555245524566 
0 
0 
-0.004072808068008272 
-0.01687031390216267 
0 
0.001901958397040958 
0 
0.0002332803127945126 
0 
-0.002184096924029337 
0 
0.0007504960199471647 
0.001407968636072551 
-0.009447247366203393 
0.006768202977252103 
0.0002332803127945126 
0.0003042581959549623 
0.0005407535149944029 
0.007367315550904655 
0.001214808137919308 
0.005801625937254172 
0 
0.009935801540624534 
0.001389780293153479 
-0.003072905493993694 
0.01443674719692269 
-2.671224468299254e-005 
-0.002511202398724895 
0.004967900770312267 
-0.01746638794132342 
-0.02099036118223176 
-0.008749889158482536 
0.009904954463367695 
-0.006242848347115541 
0 
-0.002261663664298985 
-0.01474813906011901 
0.04206203560283597 
0.005268325002438765 
-0.01005309362628336 
0.006470854037742913 
-0.02853646823496878 
-0.01572685068269841 
0 
0.008814821188939535 
0.01099142804071 
0.0256026006621872 
0 
0 
-0.007561344747166231 
0.001373983146776216 
-2.168404344971009e-019 
-1.301042606982605e-018 
0.002333246766864277 
0.008393280823026584 
0.03874030517880296 
0 
0.002047833262413128 
0 
0 
0.006114404067858894 
1.084202172485504e-019 
0.002449797964969792 
0 
-0.03669843991104134 
-0.0134598646682725 
-0.02145355638691409 
0.0002332803127945126 
0.01416215709527615 
-0.002261663664298985 
-0.04468496334599355 
0.002226255152242727 
-0.090466203862736 
0.0009331212511780504 
0 
0.01208272744332955 
0.001097489611415267 
0 
0 
-0.02298847716269127 
-0.01154325928187263 
0 
-0.003060026979748604 
0 
-0.01061514549247076 
0.006201727374874022 
0.01302452563286896 
-0.01571167212154315 
-0.002522686913485132 
0 
0.001064560711111363 
0.01064999702491661 
0 
0.0005194176773228469 
5.421010862427522e-020 
0.007457104483389685 
-0.004013142289940169 
-0.01250431660929345 
0 
0.01659747956314383 
-0.02406550726835267 
-0.001262035887446025 
0.004967900770312267 
0.0001657241332306443 
0 
-0.0004160196452068166 
0.003518157669279585 
0 
-0.001310741779245201 
-0.003582408684960421 
0.005553394839332797 
-0.001203340750910141 
0.001840291170083081 
-0.01489498778199785 
0.01320390445139505 
0.0001805548456945527 
0.00680155432698054 
0.01044592171690216 
-0.001447344423385408 
0.0001081507029988805 
0.01769416351535554 
0.001719752593703044 
-0.008985760256147082 
-0.02398791448141714 
-0.002127822608128574 
-0.0003889099166681832 
-0.004323570941169494 
0.0007504960199471647 
0.01259043241667808 
0.008213127314971428 
-0.01204570595998324 
0 
2.710505431213761e-020 
0.01669781821819747 
0 
0.01588770743809949 
0 
-0.004402452283767542 
0.00940227984426479 
1.084202172485504e-019 
0.003638382164618204 
-2.671224468299005e-005 
0.0002332803127945126 
0.005402922583093648 
-0.05841542624940616 
0.01122436383196057 
-0.03932948155883587 
-0.0001566936082743993 
-2.981555974335137e-019 
-0.04636281758167511 
-0.04000142001988383 
0.005424015602723629 
-0.01227898627277775 
0.0002332803127945126 
0.0004665606255890258 
-0.003072905493993694 
0 
0 
0.01064999702491661 
0.02569860002690444 
-0.01572685068269841 
-0.03113321657705853 
0.0005747113285879059 
0 
0.002596379336076702 
0 
-0.04396500137550768 
0.02964148590683861 
0.001901958397040958 
0.004812249065640899 
0.01328446767531595 
-0.005085192855971085 
0.009826932161713268 
0 
0.006009924900491767 
-0.04147161654942079 
-0.0002313943032604792 
0.008673523946973589 
-0.0005621949490624878 
-0.00901273159419907 
0.00211380914582409 
0 
-0.01028814036970581 
-0.01227898627277775 
0.0007504960199471647 
0.0001081507029988805 
0.04804145206008738 
-0.015290467477046 
0 
0.0006998409383835376 
0.000233280312794512 
0 
0.001719752593703044 
-0.003983933307288397 
0.001673495298928454 
-0.00451343240378004 
0.01150877298247136 
-0.003904991586941293 
-0.002528336535960938 
0 
-0.005763223249949108 
-0.002863569241925531 
0.01731789276455414 
-2.710505431213761e-020 
0 
0 
-0.04114277539728799 
-0.03276334366469614 
0.01774318838804314 
0.0005066896080649323 
-0.03516385010079827 
-0.00225671620189002 
0.01920296438719087 
0 
0.00168151154208308 
0.006852170530314125 
0.0001081507029988803 
0.01909642021131073 
0 
0.00600347209250635 
0 
0.0002332803127945126 
0.004967900770312267 
0 
-0.01716071261104506 
0.001922057066293506 
0 
0.003680082287363769 
0.003146721678168399 
0.005869483208682672 
-0.0004036170180909437 
0 
-0.004367654960223691 
-0.03471768063545201 
-0.03227656128004021 
0.002449651260130269 
0 
0 
-0.005763223249949108 
-0.000804319181189007 
0.00480277136566804 
-0.04114654387728386 
-0.02074118831823248 
0.005173935820610492 
-0.004932579942893595 
0.3342435737700403 
-0.03138689841708615 
-0.00679884269729668 
-0.001048068070258192 
-0.01448622471422918 
0 
0.01037082335340591 
0.0002332803127945126 
0.002545532108780327 
0.02313122815826176 
0 
0.009375081914061256 
-0.01097308466887138 
-0.03052382436364855 
0.01791779263915479 
0 
0 
0 
0 
-0.01673923464053621 
-0.04746366794889985 
-0.0007532026148503882 
0.005211973418954982 
0.004611200129576202 
0.01967910357371315 
-0.00985500908952168 
0 
0.004573332639400645 
0.02225739935720942 
0.001013379216129865 
0 
0 
0.007244849032836797 
-0.006676942380493445 
-0.005081084675405209 
0 
0 
0.03467398214415352 
-5.421010862427522e-020 
0.00417357902301725 
0.004967900770312266 
0.01230906545279483 
-0.009607378591265418 
0.0123215978165849 
-0.02413423608834461 
-0.02576476574782651 
0.05655585687126336 
0.0186866054482902 
0.0006391493043281015 
0.0198115094504264 
-0.004742806870492862 
-0.01000179197473291 
-0.001114978801505189 
0 
-0.01489498778199785 
0.004967900770312266 
-0.004646524932410255 
-0.03469481965904932 
-0.05852357695240504 
0.005553394839332797 
0.002141895401155025 
-0.001506405229700775 
0.001210673926101208 
-0.006133319067364494 
0.00469702111703131 
0.005872846163593543 
0.004967900770312267 
0.0365313084307247 
0.0003042581959549623 
0.05454527216253352 
-0.0170153968525164 
0 
0.004241109771404432 
-0.009141885126872111 
-0.05122690170127888 
-0.0009869875523779326 
0.0003414310157933931 
0.004969227536873987 
0.005478194016565454 
-0.07133557721952127 
0 
0.002258935026072594 
0.001719752593703044 
0 
0.004812249065640899 
-0.01282419634278701 
-0.01356130061918073 
0.0008236758732778092 
-0.01572685068269841 
0 
0.004351756362010748 
0 
0 
-0.03978948572145818 
-0.001754974056234052 
-0.002890981534516562 
-0.01303441979441843 
0.002514494179114842 
0.01625673364973805 
-0.001357963339871923 
0 
0 
0 
0.007908818099879051 
-0.00109193247450565 
-0.02324966744452756 
-0.007561344747166231 
-0.001421777959409993 
0.004899595929939583 
0.002682931572924781 
-0.001262035887446025 
0.0003042581959549623 
0.00114442649220259 
0.001373983146776216 
0 
0.002111952954108826 
0 
0.01242809878586018 
0 
0 
0.005402922583093648 
-0.02180268314305877 
0 
-0.003393601211503606 
0.0069132793922577 
-0.0003547578048490624 
0.002900812968627086 
-0.009894046908105532 
0.01111655765050564 
0.0007399699208594457 
0.0007039843180362754 
-0.005809725346727748 
-0.009269069162632383 
0 
0.0004115789568391203 
-0.01572685068269842 
0.0003042581959549623 
0 
0.003431057659707791 
0 
0.03998696470772732 
-0.01343580512651959 
-0.005356951095609433 
-0.01892683294953021 
-0.000793999939357793 
0.01150039619907056 
0 
0.07053198196764306 
0.0007504960199471647 
0.006328503112563554 
0.003208181960400208 
0.003527750472154058 
0.002900812968627086 
-0.02015141227188636 
-0.01264341402951321 
0.03046867578776953 
0.003599481594081304 
0.004812249065640899 
0 
0.008909362380731136 
0.01085456124928592 
0.008710753190734423 
0.0003042581959549623 
0.001408957546275184 
0 
0.0009570978933410477 
0.003486363188813044 
0.0007060297299911259 
0 
-0.004356513449243772 
-0.01605758772104806 
-0.0003123504375557518 
0 
0.001922057066293504 
-0.0001052514823405475 
0.0006085163919099245 
0 
0.004872883685256593 
0 
0 
-0.005080945454435 
0.004120402421472284 
-0.001114978801505188 
0.01763265465514265 
0.04397830369689522 
-0.005429710087181247 
-0.004742806870492862 
1.301042606982605e-018 
0.0003042581959549623 
0.02627237956604234 
0.006636854734976436 
5.421010862427522e-019 
0 
0.06559679929343971 
0.004563649626193943 
0.0007504960199471651 
0.001901958397040958 
0.0009903352337866766 
-0.006187361600390013 
-0.01459211316314785 
6.776263578034403e-020 
0 
0.001573360839084199 
-0.004823392759127363 
0.003722043307081173 
-0.001310741779245195 
-0.04758961942945732 
-0.000616608633510714 
-0.002666205889270852 
-0.001262035887446025 
0.006047821193280857 
-0.009035827216036692 
-0.002294122031992407 
0.003502601580298276 
0.002900637532031665 
0 
0.0004665606255890252 
-0.01693019143360855 
-0.0110851401886165 
-0.02817549665164561 
-0.02242509522450772 
-0.04189689336937224 
-0.01383924238526177 
-0.002059560249282363 
-0.002697753583724521 
0 
-0.002697753583724521 
-0.0696883670657812 
0 
-0.0014661140428708 
0.08279954903131179 
0.01114727618198069 
-0.003344936404515564 
0.03630408716207005 
-0.001669901376499166 
0.001901958397040957 
0 
0.03011490222282545 
0.0158239328455271 
