solver_type L2R_L2LOSS_SVC_DUAL
nr_class 2
label 1 -1
nr_feature 1448
bias -1
w
0.02387248019884913 
0.007728926304749201 
-3.252606517456513e-019 
0.01205684835910207 
0.001408824079083295 
-0.01218686199523078 
0.003124392294781367 
-0.01448389073544622 
-0.002387876472722589 
0.00261147933022152 
-0.0002092052965746179 
-0.03455469639681832 
-0.03601787345175932 
0.02508689777948497 
-0.01030144085932292 
-0.002590836588184246 
0.01164478219108563 
-0.04114703212797644 
0.00209468444151046 
-0.003507028242486215 
0 
-0.0004744557494309963 
-0.001219709074016123 
-0.01033513953941873 
-2.168404344971009e-019 
0.006506786117661227 
0.01299435189419577 
-0.00108210612644859 
-0.004494613268635845 
-0.004789075491803792 
-0.002659395298873938 
-0.02063937676933317 
0 
0.008470676657743422 
-0.01237521044848377 
0.002550183262859074 
0.005537212422182087 
-0.0207698531156212 
-0.008218330109707748 
0.001853467531996338 
-0.008740958724078859 
-0.02133995160976999 
0.0124696749480581 
0.01199118715618702 
-0.01895677030722796 
0.0002035291820951804 
-0.01653237088592788 
0.01275649486767264 
-4.336808689942018e-019 
-0.001988438274111189 
0.001444168227737039 
-0.001214469426140779 
-0.009142402088390518 
-0.06961876870228721 
0 
-0.03869705389530119 
0.01240821281435888 
-0.01555006643161989 
0.01317769521524118 
0 
0 
0.004210601230790121 
-0.007175041290264274 
-0.03382853665570346 
0.001165146384747226 
-0.03945753060633701 
-0.1104683314544948 
-0.009975854790124153 
-0.04760171057691047 
-0.05075140570880522 
0.0003247792571922938 
0.003880921137049328 
-0.01905010123811093 
-0.02665574548140252 
0.01478831580737336 
-0.0255238835575496 
0.001441015366064806 
-0.0275265316911581 
-0.08003380249051408 
-0.01977471776007363 
-0.01581773857230441 
-0.02702540681296874 
0.01046308418794328 
-0.01869275675232378 
-2.168404344971009e-019 
0.01030025722246331 
0.01109243317168374 
0.01535545350834588 
1.897353801849633e-019 
-0.01326271252771448 
-0.01277512416557342 
0.002236861965822519 
-0.0001818259713448431 
-0.01965093105264191 
0.00905671818224886 
0.03987098352636937 
0.006311104293494966 
-0.01838747053156974 
-0.0008415728485953464 
-0.0199010251872705 
-0.00245084562370834 
0.01873486086783259 
0.01624660777598072 
-0.005989595819900185 
0 
0.001710234618204563 
0.005819229847206718 
-0.006924819157131439 
-0.0301342298676787 
0.01569503835368779 
0.007213714483245768 
-0.02554531550718567 
-0.01130006974231998 
-0.0018653680740208 
0.004645021609651938 
-0.01204698085586836 
-0.01507077539677137 
0.0007227335093588429 
-0.01206593570468163 
0.0176647967051937 
0.004645021609651938 
-0.004956519871514305 
-0.003042454973272097 
0.004974604309398506 
-0.0126642646358006 
0.004138635480977463 
0.003515205783811927 
-0.02236295868033085 
-0.008168806637865759 
0.006935814112596743 
-0.0490125126663409 
-0.02392781391700331 
0.000606892131816061 
0.006785646300610818 
0.00730368128114142 
-0.003935998267285589 
-0.07617975681427425 
0 
-0.01669520364344516 
-0.0002747956522346251 
0.01592404995456044 
-0.003655993253602774 
-0.01036098517453294 
-0.003285069862221836 
0.009577675349179792 
0.01610239545615358 
0.007739394309797236 
-0.002177793481099873 
-0.01437719452806737 
-0.01368191723950109 
0.07449767550816462 
1.626303258728257e-018 
0.0001087284907873973 
-0.004104486499118864 
0.001055899132654323 
-0.01592630726734698 
-0.008354505959634637 
-8.673617379884036e-019 
-0.04209903250329372 
0.001430327639757042 
-0.00198843827411119 
-0.004381201841310868 
-0.01905832625094898 
0 
-0.02466469687509631 
-0.02496378916918022 
-0.007518859073088166 
-2.168404344971009e-019 
-0.01431618663874241 
0.0398802289888354 
-0.003054543145080503 
-0.009993918687450004 
-0.0005330336992466903 
0.00858911471662009 
0.006544891754905788 
-0.02420675857533797 
0.002402730442244094 
0.005671329023406196 
-0.0109568800548412 
-0.03733672015461146 
0.0095913684687059 
0.001055899132654323 
-0.01537017662476396 
0.01722171747775686 
0.02685650253897765 
-0.01104589479806419 
0.01233151379069565 
0.00421060123079012 
-0.01768686634106033 
0.01450957281774246 
-0.05203283740039827 
0 
-0.008236558205680235 
0.002466378569389593 
-0.01627507006163339 
0.0003114440331022121 
-0.000227799358665589 
-0.0005149226695033828 
0 
-4.336808689942018e-019 
0.002043054248141874 
0.0103579174966126 
0.1028271039921044 
0.01282891813750792 
0.01681853770764244 
-0.008155498249139907 
0.007648703760121445 
-0.001889644480096002 
-0.007510602914821796 
-0.007564375331584667 
-0.04732169889826615 
-0.002607901515927093 
-0.06345040155527064 
-0.02672466097669588 
-0.004238063724993765 
-0.03679813497899065 
-0.00611704270494075 
1.084202172485504e-019 
0.004051220545731656 
-0.01330961522079292 
-0.003791884321178198 
0.1598930445052108 
0.002317851383206991 
-0.04730735900081157 
-0.0139436501015844 
-0.06108650018232593 
-0.007916131662957611 
0.009347511497240918 
-0.001735042223482872 
-0.02103742489480222 
-0.01471452602013701 
0.01685017022485871 
0.002019868092033009 
-0.02314342409858326 
0.1094245180900762 
0.018124509875344 
0.004406145629931858 
-0.008975270456515671 
-0.01940974992884398 
-0.02688664897271995 
0.01325620862834836 
0.0007887751491868851 
0.001446742117699798 
0.05184483247806384 
-0.005639715787662814 
0.003125927182962839 
-0.001545832184431224 
0.02491508622630738 
-0.004618689132470864 
0.030683104979826 
-1.788933584601082e-018 
0.005545325401643981 
-0.01431618663874241 
0.01267229646094179 
-0.001620676976715963 
-0.04805398075266771 
0 
-0.07812361324926877 
-0.004179515197751687 
0.005838417589461196 
0.01297908466097724 
0.00879792566782611 
-0.03861764839395952 
-0.005207020429665462 
-0.01617506394673377 
-0.003207105320176819 
7.860465750519907e-019 
0.007666467173076258 
-0.001037325684995715 
0.003438611009546512 
-0.0172221310421429 
0.03447399106741574 
0.004522378435652076 
-0.0009906895472211726 
0.003807644125192359 
0.001391393855859591 
0.00385401112600379 
0.005999949714085957 
-0.003086663001807582 
-0.04547120835577516 
-0.03021011493160595 
0.009290043219303877 
0.0007698878043912454 
-0.01097198914760403 
0.02553059784915323 
-0.006017704253445441 
-0.01096894535323595 
0.003186579006006375 
-0.01901302851266003 
-0.05443011496403265 
-0.00136427417981044 
-0.02327158531980331 
0.003320968729003589 
0.002111798265308645 
0.01534413329158585 
-0.01660045476419987 
0.01492933500839176 
-0.00328467629474587 
0.0009533961790409314 
-1.52572743189332e-005 
0.002448245579686162 
-0.003628042587077051 
0.01111744968716249 
-0.0252833126005451 
0.03066185247404605 
0.0002035291820951783 
-0.001894107893993014 
0.0163976746977382 
0.0001439679340210551 
-0.01142898776222305 
-0.00979510833669129 
-0.0003775541950849322 
-0.001510656115160191 
-0.004944834115980502 
-0.007764749911569122 
-0.01025580367777062 
0.022529978885025 
-0.02605725783607151 
-0.03941801083622062 
-0.006838946605985555 
0.09591642067656298 
0.006233807018528804 
0.01226554513826408 
0.01046020146030249 
-0.005130006353476444 
-0.00750767330230853 
0.01154892263092027 
-0.01370472313966532 
-0.01729644673639405 
0.01357250174940039 
0.01641350709921823 
-0.01057261203232653 
0.0005198294167234418 
0.005336017950184802 
-0.04374818936839118 
-0.0001783002230453597 
-0.02644991877013924 
0.03980029334752886 
0.0003968516107143495 
0.001705123291991667 
-0.007135630994682683 
0.008706962383221606 
0.006546740526309813 
0.008734563357539372 
-0.0008841774145116857 
-0.008848261932334732 
0.0008295281227792677 
-0.02279743436985332 
-0.0224091913874404 
-0.00245084562370834 
-0.04625598894769128 
-0.00186566140764493 
0.03011694005385326 
-0.0125191853550853 
0.002335053067003571 
-0.001988438274111191 
-0.02791752328196209 
-0.003434983047488545 
0.0006826393536374433 
0.01683114229919485 
-0.00292530137313933 
-0.03941519018645396 
-0.01894165945294073 
0.006205519004254541 
0.01762375874299848 
-0.005011438745832053 
0.01314032982520536 
0.01927631671711089 
-0.00413727529752651 
-0.01718032857162839 
-0.0006872969573218797 
0.003504144712340484 
-0.02585872560662581 
0.01276877492383221 
-0.008075933699211795 
-0.00405731374210335 
0.07786265303019327 
0.00222529044872498 
-0.01446551932191769 
0.01073937528915171 
-0.01720254008226514 
-0.02557647004151744 
-0.01639906261497875 
-0.0009931944094910539 
0.008590038972623034 
0.006403579879617996 
0.06104950639760624 
-0.01595656750299676 
0.01086060127972925 
0.01227985469210054 
0 
0.01891185949914764 
-0.003722584681026306 
7.589415207398531e-019 
-0.0004119743099082482 
0 
-0.001645632072660938 
-0.0008426128105443028 
-0.01974080883231997 
0.0001877041107649226 
0.01307292692790121 
0.02237870295724919 
0.01067160402943449 
-0.001622132671650305 
0.0001202485430373787 
-0.02418348165444384 
-0.005533419889938193 
-8.261036973148821e-005 
0.1576048079903676 
0.01048252089524855 
0.01201318394201274 
0.08124837391631269 
0.01026911374014325 
-0.01099430656812129 
0 
-0.04985498005094982 
-0.01431542587389532 
-0.004771669347110656 
-0.07822990732104303 
-0.0005218692203332865 
0.015301152135824 
0.03199509934933883 
-0.01157139621151384 
0.07315721889614484 
-0.00450237647657451 
0.007353831935205767 
0.0009175906002838903 
0.006491155389056071 
-0.03570859653072381 
0 
-0.005131148141397204 
-0.0164445277893867 
-0.005546351599897933 
0.004929734218907898 
0.001051089830153177 
-0.02284965807861279 
0.007056509255694087 
0 
-0.02580613576698163 
-0.02343659415314134 
-0.02696458336154442 
-0.01406042130966197 
-0.01476621235061075 
-0.0008523079315789661 
0.008128777819749418 
-0.01108570511126344 
-0.01239009338769046 
0.03219055262702099 
0.07559252715469034 
0.02012567549834063 
0.00130726915741907 
0.004993094614516023 
0.002423242298410862 
-0.05823190177002362 
0.02754141192315816 
-0.00779140909293173 
0.007774991578883542 
-0.02393101368143222 
0.005016564033906408 
0.0004812874779492588 
0.01372969138931912 
-0.01405190316109062 
-0.007837820877278768 
-0.01289689163395743 
-0.009284547341808754 
0.001258611805495085 
0.001644415190275368 
0.0255841901457028 
-0.003517278731496679 
0.001591605331083211 
-5.421010862427522e-020 
-3.924148077056041e-005 
-0.0001686658135007384 
-0.002408907880500929 
0.009696111216261018 
0.008609530366223601 
0.003457299206698406 
-0.02556674333045146 
-0.02788177689472792 
-0.01189929356765405 
0.0228871376599724 
-0.001622600464531828 
-0.01373785417653944 
-0.007614852360319222 
0.03549206296423187 
0.008579637730166529 
-0.02607064378983317 
0.001525108752561626 
0.002443435312560133 
0.004645021609651938 
-0.006729632774682659 
0.00376791496990019 
-0.01038604781365452 
-0.005709528094858764 
-0.0328740666196756 
0.03262705759658857 
0.04549500075297507 
0.08798494120397161 
0.02387321088094646 
-0.0194048780432112 
-0.008996138075887549 
-0.006073342832280591 
-0.005917915296597191 
0.03101366136862259 
0.01380467469925033 
-0.01704788186235515 
0.02831379995327605 
-0.01446147524841504 
-0.000168531162022515 
0.007348949350359017 
0.01338762826285529 
-0.01362187942277642 
-0.007893667545642252 
-0.04140624133534075 
-0.0238881133722255 
0.007646783998930085 
-0.0009184520802075424 
0.0197539162216786 
0.005513131389266754 
0.009115287563515186 
2.981555974335137e-019 
0.008245160174397184 
-0.02459001046773116 
-0.05526936744672742 
0.0850648053057011 
-0.01660190952486104 
-0.00377711417889988 
-0.01281222622742534 
-0.004573061551855454 
0.0148801015661554 
0 
-0.03715227276984275 
-0.02378863779773184 
0.02704395289255433 
-0.03151358008148913 
0.02507274008047932 
0.1375569836894407 
0.0076356735226263 
0.01015807457028483 
-0.01408508605831351 
-0.01679128105240112 
-0.02680292273485693 
-0.01140101639016717 
-0.01693070783488106 
0.005978499932257341 
0.03997284043381103 
0.03287045850466525 
-0.02081328148401444 
-0.0005942093935859358 
-0.02839804318489269 
-0.01406354056657453 
-0.001034917004324231 
-0.05260875377288351 
-0.0004547923426693869 
-0.0181999288574029 
0.006130771947621037 
0.0002880175124210406 
-0.0357573628343082 
0.009983088504444352 
-5.421010862427522e-020 
-0.02102363532881239 
-0.001067042807133308 
-0.01781817374652656 
0.01599385362939769 
-0.003687718986438164 
0.05092387337164979 
-0.0134558708246299 
-0.02055538533504784 
0.008842251804166453 
-0.03021734761264549 
-0.0002478311091944645 
0.003214407679094798 
-0.02186766788896541 
-0.007337165591227918 
-0.0154772447722344 
-0.03624403684092357 
-0.02207109340068867 
-0.01127037646135017 
0.08143907996786166 
0.00181488228765889 
-0.03252597225629699 
0.009363441316683005 
0.01643603075891135 
-0.02262409401935599 
-0.05888389921304113 
0.009040250333409518 
0.006782586606072952 
-0.004489613698872317 
-0.0004060067758168742 
0.02129498942781617 
0.01159067962218767 
0.001065643722587097 
0.01478831580737336 
-0.05300209397635914 
0.001419800309105893 
-0.00970317912385504 
0.005301371460334841 
0.0009533961790409314 
-0.004167332832343273 
-0.00463315455435342 
0.008704660231958065 
0.003065705675836484 
0 
-0.01172032980987801 
0.03666261870183942 
0.01793852306002948 
0 
0.02198663739597359 
0.03652998656952226 
-2.168404344971009e-019 
0.003713530868496618 
-0.006236032697800878 
0.01180619962315164 
-0.04560407914115195 
0.01081257638664834 
0.1762755194923329 
-0.03075341162827087 
-0.007605962596872793 
0.006206729959562646 
-0.00850988691958913 
-0.01516335917560052 
-0.00698062524837879 
0.02077608752276325 
0.024020781237258 
-0.007309246720941874 
0.007920644281448296 
-0.01850542793314478 
-0.02128536807899813 
0.001774592393690383 
-0.007006188796377915 
-0.04642833517586203 
0.002753929194212593 
-0.006191807481498774 
-0.000497409878876602 
0.08274305615260924 
0.002833186617695709 
0.0005175077167308385 
0.008585671975376689 
-0.0003883195406403856 
0.003439579930995351 
0.003097064683391959 
0 
0.01505499081721884 
0.001255846510936828 
-0.002117824517756991 
-0.003278789373235255 
0.01913726092728236 
0.0491494508666664 
-0.02313133342604555 
0.01893461724226174 
0.0004242247086371092 
0 
-0.008703212327072829 
-0.03825367822612273 
0.004256725311344359 
-0.04200874429910418 
-0.02164646557523235 
-0.02898332721849595 
-0.01676931422059322 
0.04892807414162583 
-0.004493668227563752 
0.01437265537176745 
-0.02137266283969507 
-0.03139654869338891 
0.003355726781846713 
-0.0136520676790794 
0.006311104293494962 
0.001336930584263669 
0 
0.02718815588779544 
-0.008289093336941875 
0.0143194512980845 
-0.008478100753981347 
0.003112182912527394 
0 
-0.02868010903495315 
0.009731187147831019 
-0.02878177038290354 
-0.06123102254902324 
-0.02581573553081984 
-0.03609371806314501 
-0.02057832744112767 
0.01990729838343172 
-0.004398362946866278 
-0.01331015698756011 
-0.005937813530999567 
-0.009631772779934933 
-0.01585865281719779 
-0.002801823325764643 
-0.03213801189294923 
0.01129709675159218 
-0.02266423539153739 
0.02911265794793135 
-0.01745206553823817 
-0.03151116955880805 
-0.002959134125975814 
-0.003512314392839173 
-0.02256044631892364 
-0.001255646427155415 
-0.00117188266789901 
0.02541252905188533 
-0.04063390325140384 
-0.01141439832121487 
-0.00317651222990633 
-0.0007798564980843703 
-0.02384383833241604 
-0.004829637993959339 
0.02769221774794118 
-0.003578781070796473 
0.01219334065283773 
0.01328074858548739 
0.01143966516431988 
-0.00461075029635214 
0.003764796897796787 
-0.002600674075074358 
-0.006884949551656488 
-0.003194587095634712 
-0.006332139425941141 
0.006109641614358549 
-0.01165347231541604 
-0.006240675528266264 
-0.001735042223482871 
-0.01296846456024605 
0.05734424727812737 
-0.003976633665280669 
0.01018162608667832 
0.001492879973875403 
-4.336808689942018e-019 
-0.01807418590862676 
0.01248965601590119 
0.003461019153960989 
-0.02855448362029823 
-0.0337264532232949 
0.0187479589735965 
0.01879203601837579 
-0.01377808501188244 
0.03108302910144957 
0.0002129968631453243 
0.04038707022602067 
-0.02496946053557504 
0.004533715088425054 
0.02700345144349403 
0.01141507579479773 
-0.017799100300632 
0.001760674301136981 
-0.01214313951856395 
-0.0193766715927861 
-0.02058145356356093 
0.002663536154192833 
-0.05482600198715636 
0.008965935933461889 
0.00241257426998613 
0.002693869879065282 
-0.01500672580119458 
-0.0137194791441727 
-0.004027506135061094 
0.004843272474149974 
0.003342569222621183 
0.005953343096728898 
0.001280712559181858 
-0.009175602008912062 
0.0002860643384582945 
-0.05398845954103797 
-0.0654902421230034 
-0.02296107769300541 
-0.01207696052681506 
0 
0.01568921279108094 
0.0008484494172742193 
-0.04993968936317528 
0.01111228945749923 
0.003722108675330219 
0.02250727834538197 
0.002486821374331154 
0.00740683458470677 
-0.01224878229054568 
0.06915963728049807 
-0.02970920272804366 
-0.004433002303688188 
0.01244268883019593 
-0.001381861533435799 
-0.006797129061010077 
0.004256725311344358 
0.007920644281448296 
-0.01130109089723839 
-0.02756928288503672 
0.01087590721535501 
-0.007110527860778866 
-0.01176185786528057 
-0.0431118511973789 
-9.337362233125446e-005 
-0.01516328085349284 
-0.009349004516422902 
-0.01597214624477018 
0.005258172334284012 
0.005326452708943821 
-0.03337586743874289 
-0.01616198468335562 
-0.05166794285051452 
0.003280401831340238 
2.168404344971009e-019 
-0.009440219227951071 
0.05992887666041611 
-0.008518537773212809 
0.009426234678758669 
-0.03223154025870124 
-0.0019546792818812 
0.01274566138646332 
0.001512054399281964 
-0.02184548366194562 
0.001862423685363891 
-0.01500268312026917 
0.02051907819032232 
-0.02061724425445962 
-0.0187632444011314 
0.01213957282619294 
-0.005762512767841548 
0.005990233383687324 
0.002129747907203973 
-0.002971607002406769 
-0.001075897411931128 
0.001705123291991666 
0.0619450807805001 
-0.01275041282561176 
-0.01671890836096698 
0.003261255344949337 
-0.008976752352808709 
-0.03066706868231915 
0.02767475005624778 
0.03839788499671228 
-0.03876060681305128 
0.004215730811782718 
-0.004831462034952523 
0.003208105068947737 
4.336808689942018e-019 
-0.0002529817987217935 
-0.01525444291769658 
-0.01109959454062227 
-0.03565671021133784 
0.0128029027216517 
0.02514354994683533 
0.01631915626440493 
-0.007681584241089819 
-0.009961128679258679 
-0.01431618663874241 
0.02144619750811216 
-0.01371167470831261 
0.005497895500927043 
0.0002035291820951804 
-0.001877734323069967 
0.0001254418421299989 
-0.01403624355058317 
0.2295638804545559 
0.004256725311344359 
0.018209335708211 
-0.01286348060977163 
-0.02559613607102441 
-0.01094653529936154 
0.004810581766689312 
0.1239663417427117 
-0.5762000755320749 
-0.03398300070912143 
0.0233468246956439 
-0.04185746432726265 
0.0003474971161162356 
-0.06687917438820683 
0.01330778137942479 
0.0004741277365382973 
-0.03416884016238964 
0.005403908349652565 
-0.01907808879637813 
-0.01723861606091834 
0.006546740526309808 
-0.009417257578539191 
0.01044221449221638 
0.003032295016667522 
-0.00907836220440688 
0.02810529957821531 
-0.006814387724874551 
-0.0008355792885180279 
-0.02627632166194718 
0.004627385689434282 
-0.006704268726102991 
-0.0133127408492663 
0.01464434787335232 
0.007465987947020535 
7.204015216397824e-019 
0.001492879973875403 
0.009375308645471106 
0.007544871357603347 
-0.01371039565178326 
0 
-0.006444957870738189 
-0.002820460783216769 
0.0006229449453650836 
-0.01247970152524274 
-0.0622373524730718 
0.01227034758292896 
-0.00450224227381165 
0.00532061191747726 
-0.05722990030980397 
-0.02724144587722103 
0.009086732955123316 
0.04673133071506287 
0.006648544099153447 
-0.01539703565675841 
0.05045028169344841 
0 
-3.794707603699266e-019 
0.0001439679340210547 
-0.01634412241149551 
-0.04992136631913791 
0.03271589426760675 
-0.07065150414498636 
-0.02651954480362696 
-0.04186414439924473 
-0.00156695546804027 
-0.002594039464882241 
0.001207099112376016 
0 
-0.0180582185260342 
-0.00482480735859267 
-0.05536818072219885 
0.02230001970954006 
0.01335273238706068 
-0.01728838644986773 
2.974976508441024e-005 
-0.00970527764536327 
-0.01118670614865712 
0.05782257749890275 
-0.007905576884741378 
-0.003135530717570795 
0.04051728095566459 
-0.001067569637298607 
0.09045214420456575 
0.01373768488221294 
-0.005638414749861059 
-0.02434902643075947 
0.02857090782264119 
-0.01925479151617661 
-0.004240839366921915 
0.01226320236762711 
0.002601346236061407 
0.02317708628068752 
-0.01540671811896915 
0.004863881390533911 
0 
-0.001171882667899008 
0.004445736219474161 
-0.1057361430236978 
-0.0227762800066391 
0.009688873752005885 
-0.0154584604667589 
0.01936460208096843 
0.005483024845366792 
-0.006717457169225764 
-0.01202005662506321 
0.01943798401634758 
0.0417306706090074 
0 
0.009419943122540676 
0.007920644281448298 
-0.02434219230706044 
0.02803116992658446 
-0.008758391441456027 
0.001229941842840028 
0.004741513473623549 
-0.01569045867162896 
-0.03032640888828161 
-0.02991843272983833 
0.0126722964609418 
-0.003548097880284449 
-0.0281163836311575 
-0.005592646498242131 
-0.02789080655434273 
0.0004099806142800084 
0.007859273793773948 
-0.1185054180204154 
0.001924023513913165 
0.001055899132654324 
0.0001254418421299992 
-0.01050826036312303 
-0.005827822014666916 
0.01108896405693 
0.04296928698983294 
2.168404344971009e-019 
0.01505080764588854 
-0.006689119348829301 
0.0001150162006433868 
0.007107101745187512 
-0.01647842175259036 
-0.006319868291760879 
0.008164364295383267 
-0.0180769275569478 
-0.03540476197498865 
0.02966962645095285 
-0.001923102937193466 
-0.006308510103756314 
-0.001037325684995714 
-0.01447037486887495 
0.01207846413383225 
0.01821164585817299 
0.006626823125168996 
0.01424854886695509 
-0.001200004699174828 
-0.07563433215455091 
-0.05225271207493038 
0.002448245579686162 
-0.001291068191844886 
0.009085084421592747 
0.09173055060285186 
0.0009262626914540212 
0.01161230054830004 
-0.00779086353438004 
0.01277496099344192 
0.01839589335222167 
-0.002945621230908233 
0.03220955750678406 
0.01183228657964628 
-0.01038147965287885 
-0.005832836964299827 
0.006915402263720468 
0.006355951776707032 
0 
0.001356061499609746 
0.006607217128450002 
4.336808689942018e-019 
-0.001282676661945571 
-0.01980023991407783 
-0.005318864596072588 
-0.008360563249342683 
0.001055899132654322 
-0.02840388571640712 
0.02036846260569466 
-0.009548875121531937 
-0.005365117177187156 
-0.09223614851652148 
-0.01550123495111958 
-0.02237196850837893 
0.003004753395915395 
-0.0139907275786931 
-0.003217216267558044 
-0.008873296072431888 
-0.003851362051941272 
-0.03512784992296542 
-0.02221202982444232 
0.01973978421666771 
0.006814056613157519 
-0.0290952408216172 
0.01792669108090244 
-0.0001910520327147492 
0.00967028187273161 
0.0172521209812444 
-0.00761485236031922 
-0.01114381319734643 
0.004487568532910583 
0.0001107150377521936 
0.0002214300755043889 
0.002425982284446214 
0.01909842181159724 
-0.02141517020352373 
-0.0462238735532744 
0.01215483010051187 
0.0491264326505211 
-0.001207406525798049 
-0.00234568706266445 
0.005024258970799366 
0.009510175591687058 
-0.003222522520574624 
-0.003514790615411539 
-0.00341594776618464 
0.000125441842129998 
-0.003427760716520627 
-0.01549109630075385 
-5.421010862427522e-020 
0.002111798265308645 
0.002388712889692261 
0.000397379559543284 
0.002354165916810218 
0.01964256892264887 
-0.00312818424800645 
-0.002301416356716509 
-0.00386112013215732 
0.04185267598935614 
-2.486333926213181e-005 
-0.008616907623997432 
-0.01294812342102485 
-0.007293700119674808 
0.002583115115233403 
-0.03048659171079212 
-0.06277156528389891 
0.009703929137784832 
0.03618693324577497 
0.03885178011519409 
0.00105589913265432 
1.951563910473908e-018 
-0.002103637671475383 
0.008698169763700706 
-0.01291238076178507 
0.005006849094288515 
0.007247255736866332 
0.01191650840063467 
0.03451556607189955 
0.009888981698918954 
-0.04243276001895109 
-0.01831322440032056 
-0.009722337787798236 
0.01258465518939191 
-0.03122840380501936 
0.009313724127393393 
-0.05250736593733915 
0.008026414790500269 
0.01229031308216606 
-0.03668067102420423 
-0.1385166150537592 
-0.02768761237284869 
-0.02722823049636924 
-0.00531013685843451 
-0.009041274264498578 
-0.01606493386103684 
0.005356063872080664 
-0.03968901154053861 
0.004487568532910584 
-0.01805125867196233 
-0.005267105581615691 
-0.03545777174738079 
-0.01753912092674633 
0.005735010830056167 
-0.002124598326364254 
0.006260617129522149 
-0.00281855586942039 
0.03345173759416134 
0.0004289328215728171 
-0.004365566978534525 
0.003170888307642283 
-0.00527126739868175 
0.01163473726655256 
0.00990845112347283 
0.02283619121858911 
-0.03783576139589602 
-0.003031535337203562 
-0.006208394841899027 
-0.009578824962113618 
-0.00554198915948172 
0.05193285950145869 
0.0001439679340210547 
0.01057110829224355 
-0.004363200744921958 
-0.02115845786657065 
-0.01104953308010572 
-0.0002919240043669393 
-0.01637539510527619 
0.00338458516918314 
0.02818599198580887 
0.01130461482501979 
-0.00164563207266094 
-0.01592294601005836 
-0.01747062546245323 
-0.02266160127337529 
-0.009474057050019517 
-0.002577105057051044 
-0.02330584755519499 
1.301042606982605e-018 
-0.01879400127215271 
0.003167846252536513 
-0.01586439907434596 
0.002062774019476597 
-0.03523291208697562 
-0.007423204387869306 
-0.006476980998863156 
-0.0217493007359664 
-0.03404764504501032 
0.02615319965419661 
-0.009257987768849455 
-0.03433373231369422 
-0.0001105044786206034 
0.03457463822197252 
-0.02084068389891182 
0.004616074151048733 
0.000705805285071971 
0 
0.04126526096767023 
0.0006177828988155733 
-0.0379544534087629 
0.007920644281448298 
-0.02194271022261157 
0.006974714559026022 
-0.006895637403043186 
-0.01127083786155457 
0.004426082366550393 
0.000602766467993636 
-0.01965280738857822 
-0.003090840029729685 
-0.001933513339288372 
0.08400150706282883 
0.02044269960888913 
0 
-0.02240090840206003 
-0.03436880741151981 
0.02720649104479997 
-0.0239412046106223 
0.01344894096256863 
-0.005593095298842532 
-0.05314002441315603 
0.003932984659984017 
-0.01998717078901465 
-0.03075385462292336 
-0.0006217714699589765 
-0.04817278290950888 
0.8146417575946503 
0.000435953506850217 
-0.01453182567454611 
0.05584451948879701 
-0.002729412118929559 
0.003071034597123261 
0.08742300474171734 
-0.03645879769309973 
0.01547578380330827 
0.003476600980787626 
-0.00843274540804444 
0.01365593462260687 
-0.02115072557181064 
0.01999133945769217 
-0.001536378656323272 
-0.009843501844312697 
0.004999376379977005 
1.423015351387225e-019 
-0.002371649384792835 
-0.009054935525814498 
-0.03683012765899277 
0.008943717272980448 
0.04842839151095801 
0.0182475824954627 
0.01939707692650522 
-0.0125147359374498 
-0.008271981018360072 
-2.710505431213761e-019 
0.000477706886385479 
-0.002819207374930528 
-0.01347200110454568 
-2.710505431213761e-019 
0.01201046660956053 
0.02932453369614066 
-0.02783986905270196 
0.02896787290593352 
-0.004270778228037986 
0.03152617171068153 
-0.003042454973272097 
0.0219240210840362 
0.009400696843472237 
-0.0004944214861787933 
-0.01300055114526115 
0.003642119946382041 
-0.06660887180870194 
-0.00779247996507804 
0.02273694554638894 
-0.006650525292557923 
0.01361713581051538 
0.01227482619012221 
-0.02573420352833139 
0.005882344121638617 
-0.00353421014542585 
-0.005083405267715415 
-0.006569093762234092 
0.006974714559026025 
-0.005240854838771441 
-0.03136663248698559 
-0.01367385467649243 
0 
0.00682862091425173 
-0.02736582613827164 
0.00415336887167783 
-0.02478525130581413 
4.25718585614024e-005 
0.01397732466813205 
0.003752931739372091 
0.01998438828987645 
0.02673190072194871 
0.01569547171989216 
-0.03496709370332453 
6.90533904343768e-005 
-0.01357240251077121 
-0.02059968175480577 
-5.421010862427522e-020 
-0.04005546096827937 
-0.01120195020709158 
0.01222255933651578 
0.0004165991763422695 
-0.1005949335163966 
0 
-0.002183055878250136 
0.008166185519141169 
-0.003239333962254699 
0.006155263784220888 
-0.01198982900354442 
-0.03066992449081996 
0.01006155055450816 
-0.002450845623708342 
0.006484316273624309 
0.007920644281448298 
0.004210601230790119 
-0.01564302386060101 
0 
8.131516293641283e-020 
-0.009873792435965634 
-0.008390112918752841 
0.02744877147456847 
0.007577389452455965 
0.004874050215620864 
0.008097691165220758 
-0.004425733882951553 
-0.01542290655486742 
-0.01911026305355992 
0.006576927806757846 
-0.01912972426574926 
-0.001313782673216888 
-0.002977178448272781 
0.02403034795337176 
0.001055899132654322 
-0.003960907338694026 
0.009041052019933325 
-0.03693263212649287 
0.006331455010882483 
0.0003763130803181675 
0.02597122772594655 
0 
-0.002487006681496381 
-0.01317036674743316 
-0.001026854758949057 
0.001949720097022011 
0.001937680690940912 
-0.005120488238990821 
-0.02567332754946116 
0.009946318409142448 
0.009354913780407113 
0.006364419872774426 
-0.01428642718317105 
-0.009964408479559145 
-0.0007041313273413368 
0.003857254000486525 
-0.02452548659201398 
-0.03808582790622806 
-0.05025980517989332 
-0.03121854279499102 
-0.001759905562745001 
0.000311444033102212 
0.0002560067111224659 
0.01299415504864391 
-0.004757850923459852 
-0.001145690056266438 
0.02956703620137397 
-0.02967445259368807 
0.002994809517409244 
-0.004186626034217456 
0.004832034967056901 
0 
0.07106244164733376 
1.517883041479706e-018 
0.02309189933504362 
0.03204007452563841 
0.0009830204276698191 
0.03574245755090821 
-0.004266226964524987 
-0.01667009186311243 
0.04627946427737662 
-0.02664698584643309 
-0.006022591593543989 
0 
0.03251515126756354 
0.01039997624666641 
0.05143957501651129 
0.001032081939344369 
0.001178126539001685 
0.001095051148762538 
-0.003368476607847876 
0.008884646544725337 
0.001101378527836486 
0.001705123291991667 
-0.03059683830136427 
-0.01893228943125014 
2.032879073410321e-019 
0.02156371068844811 
0.006671471274249688 
0.0387484076689066 
-0.002201589188920755 
-0.0464097506755966 
0.001798238693524381 
-0.0007025927699701952 
0.02718597437664337 
-0.01431618663874241 
-0.02054771450394018 
-0.01884828109630388 
0.02277540112034359 
-0.01508793213176096 
-0.02855985183445291 
-0.01465550909253379 
0.005231803019885687 
0.005978761702644277 
0.007873454762652261 
-0.002207437535069559 
-0.01841598805175508 
0.00614499144433618 
0.05090827241339653 
0.1160873028372213 
0.01217360401333908 
0.01475069686481448 
-0.0009555253517896083 
0.02758794066722761 
-0.004792555443097707 
0.001047266810668527 
-0.001877723236358995 
-0.004298295620350393 
0.004944931671753354 
-0.001090230316495998 
-0.002899254074660783 
-0.07022632431558872 
-0.0003709617952443675 
0.01317960778191525 
0.01758129251689961 
-0.002221004690246196 
0.00296407021135171 
-0.06788491654756268 
0.005832200404691169 
0.00404892671430859 
-0.04471381874289816 
0.0273487704330755 
0.02248584385307098 
-0.0109884397365857 
-0.05189923561291467 
0.006086099146202698 
-0.01723168245804525 
0.01672340243722284 
-0.01532904945106901 
-4.336808689942018e-019 
-0.008109502091667059 
-0.01037564070638482 
-0.1463318106507608 
-0.01169177815238827 
-0.03006307444034967 
0.0528577017055847 
0.0100917061272128 
-0.0002747956522346243 
0.01643684059369139 
-0.009736784410413949 
-7.047314121155779e-019 
-1.843143693225358e-018 
0.007552525327650926 
-0.01595148595544163 
