solver_type L2R_L2LOSS_SVC_DUAL
nr_class 2
label 1 -1
nr_feature 1448
bias -1
w
0.006627110461682889 
0.01172877881685957 
0 
0.004368114824804133 
0.006452923122697431 
0.001387207705795162 
-0.01151873558696841 
0 
0.003207711387479475 
-0.002021880642946568 
-0.003585293563937131 
0.0154431701253839 
-0.007051994400465427 
0.05112608670828371 
-0.01028022243452292 
-0.009624583235087313 
-1.825427572831881e-007 
0.02190538808451982 
-0.003351795447256072 
-0.01970448605923609 
1.734723475976807e-018 
0 
0 
-0.02113082258107336 
0.003168641634377024 
0.001387207705795165 
0.009412932948456982 
0.0007564409012882998 
-0.004360714973665636 
-0.01847175019981337 
0 
-0.01420340530619593 
0 
2.168404344971009e-018 
-0.01587415071565321 
-0.001432574123313642 
-0.01252060235993658 
-0.01051439696467052 
-1.192622389734055e-018 
-0.005354854613756338 
-0.0054441999404219 
-0.008075413502143697 
0.007196497966561868 
-1.355252715606881e-019 
1.165517335421917e-018 
0.00361372211383074 
-0.007320937574329951 
0.009358440718162338 
0.001563925171010061 
0 
-0.02492252300259401 
-2.168404344971009e-019 
0.008317387619578433 
-0.01871257548586704 
0.0006477625347575608 
-0.0394813679587404 
0.01586594734253306 
0.007791956561749111 
-4.336808689942018e-019 
0.02217619959371982 
0.02423081888981427 
0.00687939429921094 
-2.168404344971009e-019 
0.0006407653546170678 
0.005294618469362454 
0.006036372549129082 
-0.02930539004100981 
0.001584320817188512 
-0.04138246125913224 
-0.001675915681685795 
-0.01827813008173465 
0.009691112058988085 
0 
0.0006477625347575601 
0.001292019302022589 
-0.01208128028097464 
-0.00442018524290918 
-0.002663171965201092 
-0.05116716754948068 
-0.02362263405078785 
-0.02193503684413101 
-0.01318610546421906 
-0.01102921254978688 
-0.01033913239663811 
0 
0.01144420722823988 
-7.589415207398531e-019 
-0.005513196450769538 
0.0005225013766628758 
0.0007230750865092411 
0.002706882892477487 
0.001919796742115848 
0.005343715379330436 
-0.001347627132196007 
0 
1.084202172485504e-019 
0.01488826230676159 
-0.02391626562258272 
8.673617379884036e-019 
0.0008654536560048141 
-0.01098689493139567 
0.01329862433794972 
0 
-0.0006848760720849028 
-0.00663384406171386 
-0.002975410230335766 
0.00728257488555757 
-0.01456843851607512 
-0.009740488668485106 
0.002459438626692045 
0 
-0.02195743519951346 
0.001387207705795162 
-0.007234317899131108 
0.0012003503933509 
-0.01988831904460119 
0.002731330256479446 
0 
-0.03414598763384076 
-0.01893393118608197 
0 
-0.01997730622805703 
-0.002807743564760909 
-0.001588202524540602 
0.02375491269192189 
-0.002662756538403965 
0 
-0.03111021672495543 
0.003462024906356592 
0.005104739294539753 
-0.00529924484712381 
-0.01175107339202657 
0.00341303847710196 
0 
0.002774415411590324 
0.004324254233408098 
-0.01492367508312477 
0 
0.01725217772811123 
-0.00723431789913111 
0.006452923122697431 
0.001897363361658756 
0.02830053050832778 
-0.004420276514287826 
-0.001098223423830544 
-0.004710645248472078 
-0.002169122151016122 
0 
-0.01157338785576481 
-0.001725982788883601 
-1.490777987167569e-018 
-1.084202172485504e-019 
-0.005866601098431295 
0.00176505463950654 
0.001387207705795162 
-0.007850449720066601 
-0.004039973837199838 
0 
-0.004899431107473513 
0.0001785094147002261 
0 
-0.001432574123313642 
0 
-4.336808689942018e-019 
-0.004020125483606955 
-0.01914328520830724 
-0.006080143591526874 
-0.004449086959327062 
-1.084202172485504e-019 
0.02974919225258897 
0.01536334011129116 
0.004142317020609691 
0.0003408155702489042 
0.01887791186838442 
-0.006175557789372481 
-0.03699265242928786 
-0.005469263259624567 
-0.01803565627498434 
-0.02379443999855209 
-0.0126329365679316 
0.001703986579865878 
0.001387207705795162 
-0.001388181383818782 
-0.0003353253272489491 
0.008485619875683062 
0.000640765354617068 
0.004719687878094851 
0.003361873038418282 
-0.03468948429548949 
0.006627110461682889 
0.00439773892821364 
0 
0.0005586486846364509 
0 
5.990787624101822e-005 
-0.0004537614099474892 
-0.00183078574539911 
-0.007821018293227088 
1.734723475976807e-018 
0.0004134313999445838 
0 
-0.0005943416594267157 
0.1014175181194283 
0.00223163587607242 
0.01256646951405423 
-0.0126747382138405 
0.0150297001115718 
0 
-0.004420185242909182 
-0.004380303822847365 
-0.007950761257315673 
-1.825427572829713e-007 
0.006857781244160669 
0.008376841978419463 
-0.002662645997563634 
-0.001707202501043319 
0.03105191445311969 
1.355252715606881e-020 
-0.0007188240453076246 
0.002654304556257839 
0 
0.05214478712854525 
-0.000695858708709414 
-0.02913696830352889 
0 
-0.0756830573902736 
-0.008725359861311378 
-0.01751033320560352 
2.168404344971009e-019 
-0.004449086959327062 
-0.01424169588988685 
0.0238857362860464 
-0.002972423973147279 
0.006023250376727008 
0.1165079623831661 
0.01691234627015198 
0 
0.001387207705795162 
0.004965878529356242 
-0.01089459970097384 
0.008393976854900251 
-0.003931230166127906 
0.00777603067818552 
0.02402375281828395 
-0.007233748976216381 
-0.01106559228818251 
0 
0.01070630455187223 
-0.01688686674436709 
0.02356914658744301 
0 
-5.421010862427522e-019 
0 
-5.421010862427522e-020 
-0.01126521297404252 
-0.01955008983311168 
0 
-0.06143249315879441 
-0.007321028845708592 
-0.007171135462757786 
0.005231598002911453 
0.01488826230676159 
0 
-4.336808689942018e-019 
-0.00663384406171386 
-0.01189198922098378 
0 
-0.007529357517395843 
0 
0.008392165101189425 
-0.008428268358714429 
0.0005586486846364511 
-0.004360714973665637 
-0.02250803527105456 
0 
0.0108369450725793 
-0.0002985044852273273 
-0.002952870057965847 
0 
0.004261358452307709 
0.004449805357761346 
0.0024007007867018 
-0.009292913661787389 
-0.004360714973665636 
-0.02679675508260594 
-0.03005540247499656 
-0.02500155424232086 
0.01777128738030409 
-0.008349904930674699 
-0.03574881163050105 
0.001081707971818884 
-9.12713786408351e-008 
0.00662711046168289 
0.002774415411590325 
0.01079469873275845 
0.001214444917645938 
0.01938715381185655 
-0.001675915681685795 
0.002731330256479447 
0 
0 
-0.002327738966956847 
0.001387207705795162 
-0.01319043118675222 
0.03424566882898771 
0.002175033497523346 
-0.002515354560065687 
0.01715820499224094 
0.001292019302022589 
-0.02069266387056514 
0 
-0.002392521915020746 
0.005401547844346637 
0.01761726687569672 
-0.02713933771913604 
-0.02754412438222821 
-0.012879546723796 
-0.01180106761449571 
-0.02615319251235548 
-0.02315067025954616 
0.01016560598750888 
0.001295525069515119 
0 
0.0006816311404978081 
0.001387207705795162 
0.001387207705795162 
-0.002076548872645077 
-0.02113464097277303 
-0.0084886066811053 
0.01488826230676159 
-0.00124598504991539 
-0.005253957094926761 
0.0005776922578552514 
0.009413024219835626 
0.001606177420186589 
6.505213034913027e-019 
-0.008073940617817292 
0.0003993620537179211 
0.001844721595764833 
0.0009512037317736849 
0.01423520781239903 
-0.002888230966905777 
0.01909647090578628 
-0.0008548818654583912 
0 
-0.01027601530647239 
-0.02637231797724106 
-0.01818265381187536 
-0.01456843851607513 
-0.01098689493139567 
-0.008822663838069957 
0.002151952695775398 
0.08932957384056955 
-0.001432574123313642 
0.001307672934959261 
0 
-0.01027601530647239 
0.01471481899382357 
-0.01041217411051512 
2.168404344971009e-019 
-0.01379463849615658 
-0.003110589234746059 
-0.04950620222203511 
0.009122069484376256 
-0.02211910232711585 
0.000340815570248904 
0.00139352740058173 
0.01310700058442963 
-0.005547193642231074 
-0.002741920682505614 
-0.01212803347444769 
0.001387207705795162 
-0.02488052917407269 
0.000340815570248904 
-0.0004604950099784607 
-0.0166449873887202 
0.02715729446746736 
-0.007320937574329952 
-0.0008376961415071903 
0.0001995219344190279 
-0.006838193259013753 
0.003622240276041114 
-0.006245255757877233 
-0.01881680491643859 
1.301042606982605e-018 
0.006967411578928719 
0.02850466563698426 
0 
-0.002092330207594888 
0.004368114824804133 
0 
0.01087165689136605 
-0.006507366453048364 
0.002090005506651503 
0 
0.0006693573385111532 
8.708356277714678e-005 
0.005943685096852619 
0.01364242026568433 
0.01420669628196179 
0.001175786783344984 
0.01012343735540343 
0.001091550551177622 
-0.007312934627907653 
0.001387207705795163 
0.02184275658705697 
0 
0 
0.07865975363211478 
-0.1268373041969284 
0.002838198732685491 
0.0005586486846364509 
0.008529855423035193 
-0.008073940617817292 
0 
-0.005847858855909266 
0 
-0.008898173918654124 
-0.02012736147323919 
0 
0.006052196609202157 
0.02826425580039915 
-0.008326911878597396 
0.0005586486846364509 
0.002731330256479446 
0.0006477625347575599 
-0.01098689493139567 
-9.127137864148562e-008 
-0.01077601880632354 
0.002500772312954608 
-0.002776362767637555 
0.02355892532677838 
-0.01090838139766093 
-0.002273824650996016 
0.002700987235035218 
-0.01641992599124205 
0.007243902068819507 
1.084202172485504e-019 
-0.03256325540365288 
-0.0357105185829369 
-0.02109135033023085 
0.03319654156244742 
-0.02177386430957418 
-0.02075284541462647 
0.0009168362533366726 
-0.003074867252864884 
0.006595573090862844 
0.02194127942151046 
0.004090662228214689 
0.003190498237375099 
-0.008115515393377697 
0 
0.002774415411590326 
-0.02872802392806551 
0.002774415411590325 
0.006993860513440245 
0.004917316984808244 
-0.003363538832816812 
8.70835627771458e-005 
8.708356277714613e-005 
0.006126177548694103 
-0.008815553730982195 
-0.01958499446097037 
-0.02870563051714492 
-0.0115763573493512 
0 
-0.002076548872645077 
-0.002211181671831242 
0 
-0.01770980654171874 
-3.523657060577889e-019 
0.002837935163052623 
-0.008522603872566838 
-9.127137864116036e-008 
0.04256931606162492 
0.01128264450833482 
0.001474291268572309 
-0.01027601530647239 
-0.01224274519427596 
-0.01227403201363348 
0.01504925562374551 
-0.02316107201536934 
0 
-4.336808689942018e-019 
0.01484120674322964 
-0.04516254108360782 
-0.02692169366672282 
-0.007300562699775162 
0.02149972308078236 
0.003743409438240246 
0.002171480668466952 
0.004097103463307452 
-0.0009075228198949784 
-0.002369390991007078 
-0.05016311104424102 
0.03307030610240189 
-0.006901465320572221 
0.009035022943978413 
0.006967926031931791 
-0.01013461915408609 
-0.000484265131967808 
-0.01036524369598074 
0 
0.009835977906262809 
0.009742489489253462 
-0.02453916976248545 
0.004943759831591147 
0.0003681724406079787 
0.001387207705795162 
0.004117873086530019 
0.001584320817188512 
0.004368114824804134 
-0.02258547957958526 
-0.0195220993591451 
0.01037558961998209 
-0.0009088148638982999 
-0.004702848631946548 
0.003664398385555791 
0.03001434753600465 
0.001387207705795162 
0.006294666983102872 
0.0198058507351295 
0 
-0.005513196450769538 
0.1277887436890165 
-0.01021837535506642 
0.02056705366806183 
-0.000907178338434174 
-0.008974486826049306 
0.004609476085079086 
9.976096720951397e-005 
0 
0.004844842102642595 
0.001225454792612813 
-0.01666311298533129 
1.734723475976807e-018 
0.0146467423989206 
-0.01102154924830493 
-0.006530556329136623 
-0.02152252084266281 
0 
0.0005040157139636323 
0.0006477625347575606 
-0.006695074651528978 
0 
0.01534149294794496 
0.006452923122697431 
-0.02774004099344792 
0.001386542830050575 
0.001251438739513064 
-0.01622966583735406 
0 
-0.02310011137924629 
-0.004111386784317776 
-0.008973500697453653 
0.009929759311403266 
0 
-0.05654955545798741 
0.0516529289877879 
0 
0 
0 
-0.005236091791297895 
-0.004119086917291885 
0.005943057045967346 
0.02496355276555397 
-0.01550709079026418 
-0.003175329649017395 
0.001429039313918998 
-0.0301004564964431 
0 
-0.01040387087300755 
0.00551638605626326 
0.002774415411590325 
-0.01095015123755761 
-0.01462722832081893 
-0.00989072623787878 
0.002731330256479445 
0 
0.006452923122697431 
-0.01230063590511131 
-0.006876041467115042 
0 
-0.005859010993411125 
-0.04087833146502982 
-0.0003114942331385378 
0.00353201354357824 
-0.0146385605979756 
-0.001118587116193304 
0.006027003120587308 
0.02998383306601497 
0.005660243126262639 
0.001292019302022589 
-0.01088470891087379 
-0.00329462577827281 
-2.710505431213761e-020 
-0.01898862375898429 
0.002731330256479444 
-0.02427143224462522 
0 
-0.001130140406096983 
0.006887594662039451 
-0.006633844061713859 
0.008014318167478048 
0.02421028155127575 
-0.01874229894787003 
0 
-0.004420185242909183 
0.0450185265995038 
-0.002610862795011864 
0.006452923122697431 
0.002400700786701799 
0.000340815570248904 
-0.01580559194296653 
0.0007363448812159564 
0.1319325144249193 
0.008326663161177196 
-0.03071050835799983 
0.03183924674570686 
-0.006526363009599735 
-0.006261194728090167 
0.054705640447461 
-0.03769971422687159 
0.0005776922578552514 
-0.006421684613961008 
0.006540006685474577 
-0.007111740525037717 
-0.01165410718607165 
0.002204747118020406 
-0.004449086959327062 
-0.02631547610775801 
-0.001645769831318858 
-0.004688499589540584 
0 
0.00275189044694364 
0 
0 
0.01092779770988266 
0.01634906274881144 
0 
-0.001843463149831478 
0 
0.005990197508354326 
0 
-0.00580116925331114 
0.001235418965085162 
0.00600693845255685 
0.03793435618933011 
-0.02273673838241483 
0.03226739175149843 
8.708356277714634e-005 
0 
-0.01454838845513238 
-0.009292415703347915 
0.001223424505268844 
-0.02213372594173508 
0.004435917296787419 
6.505213034913027e-019 
-0.02591530653826335 
0.001584320817188512 
-0.005139155303804571 
-0.01756198398817868 
-0.001022744050479471 
-0.03270426354834053 
-0.03377269131161956 
0.00353201354357824 
0.04035353598327358 
0.001386542830050575 
0.001214444917645938 
0.008312528811120011 
-0.01399074625821987 
0.0107833748672429 
-0.005933729868534787 
-0.002973507267870474 
0.0003681724406079784 
-0.01726092812185305 
0.01256646951405423 
-0.02403936159563492 
0.004919129977994766 
-0.01015058076184102 
-0.006633844061713859 
-0.007698496043910761 
0.01414643597964795 
-0.004420185242909182 
-0.00911161051150529 
-0.006703662726743181 
-0.0001245699253171334 
-0.001320416362077745 
0 
-0.01610946769490892 
0.01986227537377323 
0 
0.01325422092336578 
0.01070630455187223 
-0.03752481379458425 
0.01089575303373248 
-0.002662645997563634 
0 
-0.01952689051620409 
0 
0.01290584624539486 
-0.02004723600921296 
-0.013298995226626 
0 
0.01327346998477933 
-0.005157198907216385 
-0.003455081231993581 
-0.009632167146138831 
-0.01027601530647239 
0.006003528031476919 
0.002774415411590324 
-0.005847110193335947 
0.003445036024341624 
0.002329097399523837 
0.004161623117385486 
0 
-0.01456843851607512 
0.02420957848394141 
0.01070630455187223 
-0.008228816580142967 
8.69010200198625e-005 
-0.001675915681685795 
0 
0.01338775751859466 
-9.127137864159405e-008 
0.01040642262313976 
0 
0.002500772312954608 
0.001887798466389472 
-8.673617379884036e-019 
-0.01557404220353111 
-0.01847613366966988 
0.008944788250564504 
-0.01365748067659549 
0.005926078479850144 
-0.04290749777411694 
0.03444181681546106 
0.00384664633248721 
0.03123593041501091 
-0.01642235565545014 
0.001850733475356996 
0.01472330300902728 
0.001198102780887789 
0 
0.002500772312954608 
-0.02413932185940413 
0 
0 
-0.004565148194265269 
-0.02935135009536278 
0.01080023192563078 
0.009413024219835628 
-0.004422363343662484 
-0.0157461564580302 
0.01081269076152421 
-0.01111356941536527 
0.005275872476862323 
0.004561034742188126 
0.004106949733141197 
0.0006693573385111532 
0 
-0.006261210415382472 
-0.02888766307606058 
-0.08342175734245624 
0.01148455555320757 
0.03219953546755338 
0 
9.976096720951397e-005 
0 
-0.007206725765079896 
-0.009045930320118925 
-0.006761961003096666 
0.007941095830310031 
0 
0.03648702848042082 
-0.006404612601952525 
0.01605403711782226 
2.168404344971009e-018 
0.006936038528975808 
0.01647258312395009 
-0.005740305420036983 
-0.02039205279287612 
0.002546522189469191 
0.00663976765268409 
0 
0 
0.01488826230676159 
-0.01108665045174998 
-0.002776394156477124 
-0.03867731463788851 
0 
0.004187955908039878 
-0.01326071958239169 
0.001563925171010062 
0.0007328409307671526 
0.0006477625347575608 
-0.001675915681685795 
-0.03015259232232877 
-0.01146078427937599 
0 
0 
1.301042606982605e-018 
0.09700831246661339 
0.00158422954580987 
-0.001858569326061985 
-0.0155251372636405 
0.00803088710093294 
0.0113743152968549 
-0.0212779697087342 
0 
0.002543059044889347 
-0.0007759075238596121 
0.07100920851515966 
-0.0002180144819488885 
-0.005520953514387715 
-0.005136905443200696 
0 
0.003816662911515498 
0.005548830823180648 
-0.009726361709570109 
-0.01886714644398495 
0 
0.03560176430728141 
-0.006526363009599732 
-0.01476083681242708 
0.004368114824804134 
-0.01643648620014653 
0.002478758256972784 
0.01820345500787246 
0.01571954965988106 
-0.01056743358447237 
-0.005720388592622366 
-0.007682318601785665 
0.007122280461208587 
0.005999373938942262 
8.673617379884036e-019 
-0.0004537614099474881 
0.005740585222748519 
0.04846163777962853 
0 
-0.003908842641941071 
0.032809942929839 
-0.005514752376912075 
-0.005379773694819462 
0 
0.008282468239660777 
-0.004395368488073021 
-0.006529837124681757 
0.00361372211383074 
-0.002782313295534825 
0 
0.006047544387849576 
0.01361699627584526 
1.084202172485504e-019 
-0.0002985044852273272 
0 
0.009990716477690878 
0 
0.01480652965465603 
-0.01069741296033819 
-0.4311780326098592 
-0.005379773694819462 
0.009383992184365836 
-0.0482065630166594 
0.003954537684079642 
-0.01105814735038675 
-0.002087925148345913 
0.001387207705795162 
-0.0296227669950397 
-0.00784891617580372 
-0.001047365813569873 
-0.001525623407956142 
0.01909647090578629 
-0.004966224971199848 
-0.01999527270202404 
-3.128681935752344e-005 
0 
0.008736229649608266 
-0.008689133150600291 
-0.005994649302944878 
-0.04540535980235834 
-0.006901960082707236 
0.02423081888981427 
0.0005776922578552514 
0 
0.001292019302022589 
1.084202172485504e-019 
0 
0.01304541129522968 
0 
-0.01197466275299388 
0.002500772312954608 
-0.006575089056783006 
-0.004360714973665635 
-0.00723431789913111 
0 
-0.0441294056829998 
-0.01725518547624126 
-0.00723431789913111 
-0.0119813790839439 
-0.06149530787056254 
0 
-0.02619058932942688 
0.03005960505778205 
-0.001059737244764638 
0.00374340943824025 
0.0245956778217448 
0 
0 
0.004130218034708081 
-0.02484093641734471 
-0.01512775566862381 
0.004252937114674987 
0.01704781667459214 
0.008366851727524195 
-0.005249234881331784 
0 
-0.02603773504091051 
0.001806861056915368 
5.421010862427522e-020 
0.002134094465784267 
0.02070264832597287 
-0.01361602746643289 
0.05196560936743183 
-0.03324572881894174 
0 
0.003275006172184633 
0.00294045113970822 
0.0005457752755888113 
-0.002169122151016122 
-0.01313865102469448 
0.004077788819167047 
-0.0002985044852273271 
0 
0.00315909069342193 
0.01415811945765132 
0 
-9.127137864153984e-008 
0.005335598458725986 
0.0006407653546170673 
-0.005513196450769538 
0.03743733990560514 
0 
0.00811247328494835 
0.002972832217647524 
0.01179861554858435 
8.673617379884036e-019 
0 
0.01926513832610013 
-0.02530884885511172 
-0.002988302208083054 
0.01553602484151915 
0.008083429019082137 
0 
0.007035799496185327 
-0.0007404188490612165 
-0.005102066750775868 
-0.01286133920654111 
0.01608427791539776 
0.001386542830050575 
0.001387207705795162 
0.006452923122697431 
-0.03456414275097512 
-0.01440937922875787 
0 
0.001214444917645938 
-0.00835634707541762 
-0.02320472256526546 
0 
0.0006477625347575604 
0.002459438626692045 
0.001387207705795162 
0 
-3.252606517456513e-019 
0 
0.0005586486846364509 
-0.002713106078018572 
-0.03234042094611377 
0.003924765014259928 
0.001387207705795162 
8.708356277714602e-005 
-0.005253957094926761 
-0.01568006893781569 
-0.0002985044852273273 
0.008736229649608268 
0 
0.01325422092336578 
-0.001690026592487042 
-0.001675915681685795 
0.01059604063073472 
-0.008170939455094804 
-0.001604467312484863 
0.007172885737271698 
-0.01614880908620106 
-0.02102853609670133 
-0.01082010496212517 
0.001659400229674136 
-0.002769337488370723 
0 
0.003556681168101799 
-0.0105702189431123 
0.03297901998548457 
0.02209199646849161 
0.006468914597203975 
0.00450459865666859 
-0.05249660442022391 
-0.01098689493139567 
0 
0.01185638657749101 
0.01080023192563078 
0.009724729623715045 
0 
0.006176958809840018 
-0.005102066750775868 
0.000640765354617068 
0.02448137835305208 
8.673617379884036e-019 
8.708356277714569e-005 
0.001591513852746204 
0.01572749670793562 
0 
0.008046656309930685 
0.006452923122697431 
0 
0.01083574529617965 
0 
0.005338971045640102 
-9.75781955236954e-019 
-0.02129241361698648 
-0.01504271264424478 
-0.02375617149756844 
-0.02041636716253301 
0.009562651163173386 
-0.002664943081778734 
-0.03271390896700946 
0.005882536377293877 
-0.04002163059180391 
0.003618284110572028 
-0.02287930546171366 
0.01447922369538247 
-0.02290032074110166 
0 
2.710505431213761e-020 
-0.02137127829594199 
-0.003755627737892152 
-0.0032965855880465 
-0.007681466060846518 
0 
-0.006063473405628333 
-0.001607711892088291 
0.0003171365257842364 
-0.005768053681195578 
-0.0006895038338075041 
2.168404344971009e-019 
-0.01935767844378411 
0.009413024219835628 
0.002500772312954609 
0 
-0.004111386784317776 
0.008460995138230891 
-0.003455081231993582 
-0.01237470866204939 
0 
0.02430379891333628 
-0.0320966817279141 
-0.002169122151016122 
0.006581079168419822 
0.001162622552571161 
0.00687939429921094 
-0.000705526797053261 
0.005203805265564205 
-0.004111386784317776 
-0.006496825386932904 
-0.006471917360718097 
0.001806861056915368 
0.002774415411590325 
0.003142771441662725 
-0.01466952542430827 
0.02265512198695051 
-0.002208979320770403 
0.007528116241276302 
-0.01994628683213292 
-0.002237931366733782 
0.001606177420186588 
-0.006537180845012974 
0 
-0.006901960082707236 
-0.01217302741656025 
0.006601460421857934 
-0.0122177734455444 
-0.01031671851891577 
0.0005586486846364511 
0.0177362704546066 
0.03116757905389709 
-0.006311288338115598 
0 
0.0003408155702489041 
0.01392630745479609 
0 
-0.02920018726692477 
0.003408386323094813 
0.01104047096835141 
0.01726596759179789 
0.006452923122697432 
0.006347613780033708 
-0.001930546712608623 
0.002478758256972784 
0.003371232059693129 
-0.05207547008182104 
0.01028817888268759 
-0.06131629684839997 
0.00196737900283471 
-0.001432574123313643 
-0.04717980382140483 
-0.09477592182650585 
0.00406967762113499 
-0.005724845601390366 
0.001387207705795162 
0.002774415411590325 
-0.001675915681685796 
-0.01109438728446214 
0.001386542830050575 
0.009413024219835628 
0.04442545021443733 
-0.01540925827505816 
-0.01437881568329835 
0.004411741238356757 
0 
0 
0.001637325826766433 
-0.03447594375579911 
0.01593725812837438 
0.0006477625347575604 
0.006032785856532845 
0.009898715799724456 
-0.0016139672713087 
0.009339792333210778 
0.003887315143005184 
0.006225634359759381 
-0.03173140299656918 
-0.0009253396606064886 
4.290082411739055e-006 
0.001992500966369366 
-0.01413254648802687 
-0.01652745632183772 
0.001292019302022589 
-0.0123777564169938 
-0.007698496043910761 
0.0005586486846364454 
-0.01462164519963954 
0.04711931117761543 
-0.03330140456045568 
0.002853611195321053 
0.004498093347508497 
0.001886012541842733 
0 
0 
-0.003155954557457731 
-0.0003687479510135156 
0 
0.01643595552440796 
-0.003455081231993582 
0 
0 
0.00208380739806457 
-0.02388248419463304 
0.01901094645047498 
-0.003565611508728969 
-0.00663384406171386 
0 
-0.01990297197335894 
-0.03288525031643305 
0.02873513447777591 
0.002970863647239086 
-0.03492626775220875 
-0.00282075550713242 
0.02282194890987908 
0.00250077231295461 
-5.421010862427522e-020 
-0.0338153192341665 
1.084202172485504e-019 
0.02617966740552621 
0 
0.007043633228828549 
0.007656879363845198 
0.001387207705795163 
0.00497516230405716 
-0.006575089056783006 
-0.009048192556756743 
-0.002662645997563634 
2.168404344971009e-019 
0.01486457809871553 
0.006692295509965281 
0.004539470051096863 
-0.00101750602983983 
-2.168404344971009e-019 
2.710505431213761e-020 
-0.03622546736496792 
-0.0250849794120534 
0.005789467305104459 
-9.127137864159405e-008 
0.008495866907171195 
-0.0003733751932565574 
-0.011572653472542 
0.0005956921166525109 
-0.02194930743970378 
-0.01225334387058389 
0.004561034742188128 
-0.03017956312013079 
0.4906382542997086 
-0.01068464909881759 
-0.008265223075611113 
0.02259992533266872 
-0.01222097680389301 
-0.0002985044852273273 
0.008392165101189425 
0.00138711643441652 
0.0024007007867018 
0.0305455862332465 
0.004818532260559763 
0.01602788018783285 
-0.002343531212067963 
-0.01535743783043394 
-0.008038456333372157 
5.421010862427522e-020 
0 
0 
0.001606177420186588 
-0.01516544748652978 
-0.0375599377226678 
-0.003110589234746059 
0.00662711046168289 
0.02490224147944747 
0.0176492110125393 
-0.002864411164637856 
-0.005547193642231071 
0.001671404379965658 
0.01807189927834429 
0.003268402601586538 
-0.009655347691949191 
5.421010862427522e-020 
0.009822956448392563 
-0.01409628241582837 
0.009962665887984052 
0.02581169249078973 
-0.005206378071982168 
0.05532117708383157 
-0.0002985957566059688 
0.005568465218155034 
0.009086549088374932 
0.0140558658514063 
-0.004443693707584063 
-0.002021308193778582 
-0.01952689051620409 
-0.01554317728350051 
0.03972116102677568 
0.01488826230676159 
-0.006896152117249948 
0.01622116998203704 
-0.001675915681685796 
-0.009137771486118423 
-0.002975410230335765 
-0.01250077712116043 
-0.01088929255791545 
0.006627110461682889 
-0.003757572374825855 
-0.04038968749096201 
-0.05173465451157214 
0.001806861056915368 
-0.005283716346916165 
-0.006221178469492119 
0.001584320817188512 
-0.01236440771088634 
0.004243347968337152 
0.01003513369414982 
0.007841555379328832 
0.01678818985769731 
0.000427899133026049 
0.03077375187799183 
-0.005141031950715932 
-0.001388181383818778 
0.006496651726312188 
-0.009912842177980934 
-0.03867731463788851 
-0.006071794249317944 
-0.0005433390068134593 
0.01678033766632985 
0.0005367315206474968 
-0.07139015704823049 
0 
0.004665341503902596 
-0.002662645997563635 
-0.004111386784317776 
0.001320831871746997 
-0.01170950819522506 
-0.01863398360342939 
0.006966477861988086 
-0.01098689493139567 
0.0005040157139636314 
-0.003929277570704484 
0.0005040157139636323 
0.0005040157139636314 
-0.03944134166084647 
-0.001582546670777549 
0.001602441634855386 
-0.01122703938134661 
-0.00326459591700357 
0.0171121887530824 
-1.825427572847365e-007 
0.001749973161746612 
-0.004006242176962695 
-0.004420185242909183 
-0.02288940408611758 
0.01100679193513335 
-0.01309055889353666 
-0.005102066750775868 
-0.008220808499533761 
0.003213347082937344 
0.002056565044306315 
-0.002169122151016122 
8.70835627771458e-005 
0.007950091631582383 
0.000640765354617068 
0 
0.02135995359094086 
0.002543059044889347 
0.01170116161919381 
-0.026372684704372 
0 
0.01147085444986057 
-0.01623612981272746 
-0.002807743564760909 
-0.01549328427099678 
0.006417132604080569 
0.02092482181726087 
0.009914286145006434 
-0.01440242738711214 
0.01906683393063689 
0.002971528522983673 
-0.004111386784317776 
-0.004679493068453449 
-0.01511016924273195 
0.005575718679277187 
0.00652481061271554 
-0.01088713396418615 
8.708356277714591e-005 
0.0009139477161967899 
0.009468820963255249 
0.0005457752755888104 
0.03108412150633118 
-0.009116876257638507 
0.01986839712930214 
-0.0152568957456116 
-0.001432574123313642 
0.005779492354660448 
0 
0.03979744761903585 
0.0005586486846364509 
0.009262055486106688 
0.01046798094665329 
0.004402075468745076 
0.01231820645638652 
-0.009517907970054487 
-0.005379773694819462 
0.03704893549271709 
0.002928011943476271 
0.02262848444936453 
-3.794707603699266e-019 
0.008402452753456293 
0.01442266958452293 
0.03159522577793963 
0.02078973188875002 
-2.710505431213761e-019 
0 
-0.005747898838334493 
0.0005776922578552516 
0.003212354840373176 
0 
0.0264003801255826 
-0.02034605716593938 
8.708356277714645e-005 
0 
-1.409462824231156e-018 
-0.0001928561816556982 
0.0001741671255542918 
-0.0006689837032953355 
0.007282574885557568 
-0.001388181383818778 
6.957668400200951e-005 
-0.004449086959327062 
0.004428347644287426 
-0.002975410230335765 
0.02029203351006076 
0.03635041793860821 
-0.0199382216965159 
-0.001307743241077817 
-0.01027601530647239 
8.708356277714591e-005 
0.001186551898548619 
0.007344485817892621 
8.673617379884036e-019 
0 
0.0610941875226102 
0.007916779434362803 
0.0005586486846364509 
-0.00264882305328894 
0.001387207705795164 
-0.005058401637992095 
-0.01134956753799103 
0.001754715270658553 
-2.168404344971009e-019 
-0.006979767765544713 
-0.005187881350987842 
-0.0004318159584196625 
-0.007655120605612315 
-0.02773568264771607 
0.001203956241147766 
-0.001459402686442208 
0.00165682242421793 
0.004156264405560007 
-0.004550519807748628 
-0.006754296978850757 
0.01911931179535612 
8.708356277714672e-005 
0 
0.01568026165698518 
0.001885075532556759 
-0.0140362054320007 
-0.04080459353788429 
-0.02214495108831792 
-0.02643077676669046 
-0.01346611869069048 
-0.001648260034935902 
0 
0.0001785094147002261 
-0.00723431789913111 
-0.1012355478838352 
-8.673617379884036e-019 
-0.01322996728172522 
0.05951677942156557 
0.003195871913182995 
-0.008926230691007299 
0.02798162248040332 
0.0003681724406079786 
0.0006476712633789188 
0 
0.0171700976040291 
-0.02722295019246703 
